{"learner":{"attributes":{},"feature_names":["age","hba1c","albumin","scr","egfr"],"feature_types":["float","float","float","float","float"],"gradient_booster":{"model":{"gbtree_model_param":{"num_parallel_tree":"1","num_trees":"150"},"iteration_indptr":[0,3,6,9,12,15,18,21,24,27,30,33,36,39,42,45,48,51,54,57,60,63,66,69,72,75,78,81,84,87,90,93,96,99,102,105,108,111,114,117,120,123,126,129,132,135,138,141,144,147,150],"tree_info":[0,1,2,0,1,2,0,1,2,0,1,2,0,1,2,0,1,2,0,1,2,0,1,2,0,1,2,0,1,2,0,1,2,0,1,2,0,1,2,0,1,2,0,1,2,0,1,2,0,1,2,0,1,2,0,1,2,0,1,2,0,1,2,0,1,2,0,1,2,0,1,2,0,1,2,0,1,2,0,1,2,0,1,2,0,1,2,0,1,2,0,1,2,0,1,2,0,1,2,0,1,2,0,1,2,0,1,2,0,1,2,0,1,2,0,1,2,0,1,2,0,1,2,0,1,2,0,1,2,0,1,2,0,1,2,0,1,2,0,1,2,0,1,2,0,1,2,0,1,2],"trees":[{"base_weights":[1.3624158E0,-6.826348E-1,4.4976705E-1,-2.2315408E-1,2.222222E-1,-4.2857146E-1,2.8536585E-1,-7.663455E-9,-1.7027028E-1],"categories":[],"categories_nodes":[],"categories_segments":[],"categories_sizes":[],"default_left":[0,0,0,0,0,0,0,0,0],"id":0,"left_children":[1,3,-1,-1,5,7,-1,-1,-1],"loss_changes":[5.7752295E2,7.3596153E0,0E0,0E0,4.6775064E0,3.2432437E-1,0E0,0E0,0E0],"parents":[2147483647,0,0,1,1,4,4,5,5],"right_children":[2,4,-1,-1,6,8,-1,-1,-1],"split_conditions":[6.056866E1,5.9584713E1,4.4976705E-1,-2.2315408E-1,1.45E1,5.5E1,2.8536585E-1,-7.663455E-9,-1.7027028E-1],"split_indices":[4,4,0,0,2,0,0,0,0],"split_type":[0,0,0,0,0,0,0,0,0],"sum_hessian":[2.0595554E3,1.2888889E2,1.9306665E3,1.20888885E2,7.9999995E0,4.444444E0,3.5555553E0,1.3333333E0,3.111111E0],"tree_param":{"num_deleted":"0","num_feature":"5","num_nodes":"9","size_leaf_vector":"1"}},{"base_weights":[-6.617957E-1,6.4927286E-1,-2.2488354E-1,-5.7303375E-1,1.3833561E0,-2.1957107E-1,2.222222E-1,4.4387293E-1,4.4444442E-1,-9.230773E-2,2.8800002E-1,3.122449E-1,-3.658537E-1,1.9999997E-1,-1.5517244E-1,-1.5517244E-1,-7.663455E-9,1.7999999E-1,-6.206898E-2],"categories":[],"categories_nodes":[],"categories_segments":[],"categories_sizes":[],"default_left":[0,0,0,0,0,0,0,0,0,0,0,0,0,0,0,0,0,0,0],"id":1,"left_children":[1,3,-1,5,7,-1,9,-1,11,13,-1,-1,15,17,-1,-1,-1,-1,-1],"loss_changes":[2.3772461E2,1.1733873E2,0E0,6.409563E0,6.700287E0,0E0,2.177094E0,0E0,4.729938E0,1.0005305E0,0E0,0E0,2.5231284E-1,9.3793106E-1,0E0,0E0,0E0,0E0,0E0],"parents":[2147483647,0,0,1,1,3,3,4,4,6,6,8,8,9,9,12,12,13,13],"right_children":[2,4,-1,6,8,-1,10,-1,12,14,-1,-1,16,18,-1,-1,-1,-1,-1],"split_conditions":[6.056866E1,4.650827E1,-2.2488354E-1,4.334548E1,5.9584713E1,-2.1957107E-1,7.2E0,4.4387293E-1,1.45E1,7.3E1,2.8800002E-1,3.122449E-1,6.7E0,1.84E1,-1.5517244E-1,-1.5517244E-1,-7.663455E-9,1.7999999E-1,-6.206898E-2],"split_indices":[4,4,0,4,4,0,1,0,2,0,0,0,1,2,0,0,0,0,0],"split_type":[0,0,0,0,0,0,0,0,0,0,0,0,0,0,0,0,0,0,0],"sum_hessian":[2.0595554E3,1.2888889E2,1.9306665E3,4.8444443E1,8.044444E1,4.0444443E1,7.9999995E0,7.244444E1,7.9999995E0,6.222222E0,1.7777777E0,4.444444E0,3.5555553E0,3.9999998E0,2.222222E0,2.222222E0,1.3333333E0,1.7777777E0,2.222222E0],"tree_param":{"num_deleted":"0","num_feature":"5","num_nodes":"19","size_leaf_vector":"1"}},{"base_weights":[-7.006202E-1,1.3078651E0,-2.2488822E-1,4.391421E-1,4.4444442E-1,7.384615E-1,-1.4400001E-1,-7.663455E-9,9.0566033E-1,-7.663455E-9,3.512195E-1],"categories":[],"categories_nodes":[],"categories_segments":[],"categories_sizes":[],"default_left":[0,0,0,0,0,0,0,0,0,0,0],"id":2,"left_children":[1,3,-1,-1,5,7,-1,-1,9,-1,-1],"loss_changes":[2.0380115E2,6.00679E0,0E0,0E0,2.800684E0,8.917272E-1,0E0,0E0,1.4137135E0,0E0,0E0],"parents":[2147483647,0,0,1,1,4,4,5,5,8,8],"right_children":[2,4,-1,-1,6,8,-1,-1,10,-1,-1],"split_conditions":[4.650827E1,4.334548E1,-2.2488822E-1,4.391421E-1,7.2E0,5.4E0,-1.4400001E-1,-7.663455E-9,6.1E1,-7.663455E-9,3.512195E-1],"split_indices":[4,4,0,0,1,1,0,0,0,0,0],"split_type":[0,0,0,0,0,0,0,0,0,0,0],"sum_hessian":[2.0595554E3,4.8444443E1,2.011111E3,4.0444443E1,7.9999995E0,6.222222E0,1.7777777E0,1.3333333E0,4.8888884E0,1.3333333E0,3.5555553E0],"tree_param":{"num_deleted":"0","num_feature":"5","num_nodes":"11","size_leaf_vector":"1"}},{"base_weights":[9.3016344E-1,-1.992397E-1,1.0058682E0,1.7510554E-1,3.0266058E-1,-3.730071E-1,2.1246876E-1,-1.5555836E-1,1.1608319E-2],"categories":[],"categories_nodes":[],"categories_segments":[],"categories_sizes":[],"default_left":[0,0,0,0,0,0,0,0,0],"id":3,"left_children":[1,-1,3,5,-1,7,-1,-1,-1],"loss_changes":[2.7633875E2,0E0,5.2595215E0,2.9110622E0,0E0,3.2688648E-1,0E0,0E0,0E0],"parents":[2147483647,0,0,2,2,3,3,5,5],"right_children":[2,-1,4,6,-1,8,-1,-1,-1],"split_conditions":[5.9584713E1,-1.992397E-1,6.056866E1,1.45E1,3.0266058E-1,5.9E0,2.1246876E-1,-1.5555836E-1,1.1608319E-2],"split_indices":[4,0,4,2,0,1,0,0,0],"split_type":[0,0,0,0,0,0,0,0,0],"sum_hessian":[2.283014E3,1.0314168E2,2.1798723E3,8.058114E0,2.1718142E3,4.1212897E0,3.9368246E0,2.8532863E0,1.2680032E0],"tree_param":{"num_deleted":"0","num_feature":"5","num_nodes":"9","size_leaf_vector":"1"}},{"base_weights":[-5.822054E-1,4.8100296E-1,-2.0049621E-1,-1.9555412E-1,8.833817E-1,1.828423E-1,9.436138E-1,-7.9504855E-2,2.2397467E-1,3.0015287E-1,3.3705866E-1,1.6284186E-1,-1.3874984E-1,7.615007E-1,-3.2021052E-1,1.504306E-1,-5.8701236E-2,2.5818092E-1,8.263323E-2,-1.4127286E-1,5.3605675E-3],"categories":[],"categories_nodes":[],"categories_segments":[],"categories_sizes":[],"default_left":[0,0,0,0,0,0,0,0,0,0,0,0,0,0,0,0,0,0,0,0,0],"id":4,"left_children":[1,3,-1,-1,5,7,9,11,-1,-1,13,15,-1,17,19,-1,-1,-1,-1,-1,-1],"loss_changes":[1.6259766E2,6.1375206E1,0E0,0E0,3.9982834E0,1.4002132E0,2.7956238E0,7.334605E-1,0E0,0E0,2.8363554E0,7.1506643E-1,0E0,4.9206734E-2,2.300593E-1,0E0,0E0,0E0,0E0,0E0,0E0],"parents":[2147483647,0,0,1,1,4,4,5,5,6,6,7,7,10,10,11,11,13,13,14,14],"right_children":[2,4,-1,-1,6,8,10,12,-1,-1,14,16,-1,18,20,-1,-1,-1,-1,-1,-1],"split_conditions":[6.056866E1,4.334548E1,-2.0049621E-1,-1.9555412E-1,4.650827E1,7.2E0,5.9584713E1,7.3E1,2.2397467E-1,3.0015287E-1,1.45E1,1.84E1,-1.3874984E-1,5.9E0,6.7E0,1.504306E-1,-5.8701236E-2,2.5818092E-1,8.263323E-2,-1.4127286E-1,5.3605675E-3],"split_indices":[4,4,0,0,4,1,4,0,0,0,2,2,0,1,1,0,0,0,0,0,0],"split_type":[0,0,0,0,0,0,0,0,0,0,0,0,0,0,0,0,0,0,0,0,0],"sum_hessian":[1.7713784E3,1.323803E2,1.6389982E3,3.4533974E1,9.784633E1,8.066239E0,8.978009E1,6.0907574E0,1.9754819E0,8.148701E1,8.293078E0,4.0823784E0,2.008379E0,4.9426804E0,3.3503976E0,1.8944914E0,2.1878872E0,3.4655142E0,1.4771664E0,2.04565E0,1.3047476E0],"tree_param":{"num_deleted":"0","num_feature":"5","num_nodes":"21","size_leaf_vector":"1"}},{"base_weights":[-6.199702E-1,9.006217E-1,-2.005179E-1,2.9841703E-1,3.3511168E-1,5.569756E-1,-1.3107708E-1,-4.115391E-3,6.810584E-1,-8.047434E-3,2.6466012E-1],"categories":[],"categories_nodes":[],"categories_segments":[],"categories_sizes":[],"default_left":[0,0,0,0,0,0,0,0,0,0,0],"id":5,"left_children":[1,3,-1,-1,5,7,-1,-1,9,-1,-1],"loss_changes":[1.303675E2,2.5837212E0,0E0,0E0,1.8411591E0,5.5358124E-1,0E0,0E0,9.253454E-1,0E0,0E0],"parents":[2147483647,0,0,1,1,4,4,5,5,8,8],"right_children":[2,4,-1,-1,6,8,-1,-1,10,-1,-1],"split_conditions":[4.650827E1,4.334548E1,-2.005179E-1,2.9841703E-1,7.2E0,5.4E0,-1.3107708E-1,-4.115391E-3,6.1E1,-8.047434E-3,2.6466012E-1],"split_indices":[4,4,0,0,1,1,0,0,0,0,0],"split_type":[0,0,0,0,0,0,0,0,0,0,0],"sum_hessian":[1.7613721E3,5.3816116E1,1.707556E3,4.5487877E1,8.328238E0,6.6855397E0,1.6426973E0,1.3528464E0,5.3326936E0,1.3717391E0,3.9609544E0],"tree_param":{"num_deleted":"0","num_feature":"5","num_nodes":"11","size_leaf_vector":"1"}},{"base_weights":[7.486498E-1,-1.8390849E-1,8.051061E-1,1.4089856E-1,2.4226654E-1,-3.2711914E-1,5.623275E-1,1.7244864E-2,-1.4268216E-1,1.9774315E-1,6.074831E-2],"categories":[],"categories_nodes":[],"categories_segments":[],"categories_sizes":[],"default_left":[0,0,0,0,0,0,0,0,0,0,0],"id":6,"left_children":[1,-1,3,5,-1,7,9,-1,-1,-1,-1],"loss_changes":[1.6523169E2,0E0,3.2340088E0,1.9140359E0,0E0,3.007946E-1,4.0135264E-2,0E0,0E0,0E0,0E0],"parents":[2147483647,0,0,2,2,3,3,5,5,6,6],"right_children":[2,-1,4,6,-1,8,10,-1,-1,-1,-1],"split_conditions":[5.9584713E1,-1.8390849E-1,6.056866E1,1.45E1,2.4226654E-1,3.6E0,6.7E0,1.7244864E-2,-1.4268216E-1,1.9774315E-1,6.074831E-2],"split_indices":[4,0,4,2,0,2,1,0,0,0,0],"split_type":[0,0,0,0,0,0,0,0,0,0,0],"sum_hessian":[2.1419272E3,8.487828E1,2.057049E3,7.771655E0,2.0492773E3,3.788322E0,3.9833333E0,1.2259197E0,2.5624022E0,2.4833593E0,1.499974E0],"tree_param":{"num_deleted":"0","num_feature":"5","num_nodes":"11","size_leaf_vector":"1"}},{"base_weights":[-5.3267795E-1,3.984117E-1,-1.8517905E-1,-1.7974211E-1,7.066596E-1,1.5716124E-1,7.5483274E-1,-6.518875E-2,1.8438336E-1,2.4018723E-1,2.7708834E-1,1.3754192E-1,-1.2426055E-1,6.131548E-1,-2.7565098E-1,1.2928168E-1,-5.4639317E-2,5.9651304E-2,2.1207939E-1,-1.2877776E-1,1.1515231E-2],"categories":[],"categories_nodes":[],"categories_segments":[],"categories_sizes":[],"default_left":[0,0,0,0,0,0,0,0,0,0,0,0,0,0,0,0,0,0,0,0,0],"id":7,"left_children":[1,3,-1,-1,5,7,9,11,-1,-1,13,15,-1,17,19,-1,-1,-1,-1,-1,-1],"loss_changes":[1.1543564E2,3.8064682E1,0E0,0E0,2.3689919E0,9.3896204E-1,1.6625557E0,5.417182E-1,0E0,0E0,1.8525965E0,5.5536056E-1,0E0,9.047723E-2,2.1506447E-1,0E0,0E0,0E0,0E0,0E0,0E0],"parents":[2147483647,0,0,1,1,4,4,5,5,6,6,7,7,10,10,11,11,13,13,14,14],"right_children":[2,4,-1,-1,6,8,10,12,-1,-1,14,16,-1,18,20,-1,-1,-1,-1,-1,-1],"split_conditions":[6.056866E1,4.334548E1,-1.8517905E-1,-1.7974211E-1,4.650827E1,7.2E0,5.9584713E1,7.3E1,1.8438336E-1,2.4018723E-1,1.45E1,1.84E1,-1.2426055E-1,3.6E0,6.7E0,1.2928168E-1,-5.4639317E-2,5.9651304E-2,2.1207939E-1,-1.2877776E-1,1.1515231E-2],"split_indices":[4,4,0,0,4,1,4,0,0,0,2,2,0,2,1,0,0,0,0,0,0],"split_type":[0,0,0,0,0,0,0,0,0,0,0,0,0,0,0,0,0,0,0,0,0],"sum_hessian":[1.4616023E3,1.2141335E2,1.340189E3,2.843814E1,9.297521E1,7.8374887E0,8.5137726E1,5.8510156E0,1.9864731E0,7.707439E1,8.063336E0,4.0844183E0,1.7665976E0,4.946533E0,3.1168032E0,1.9482476E0,2.1361706E0,1.4888643E0,3.4576693E0,1.8466246E0,1.2701787E0],"tree_param":{"num_deleted":"0","num_feature":"5","num_nodes":"21","size_leaf_vector":"1"}},{"base_weights":[-5.6954694E-1,7.184951E-1,-1.8520847E-1,2.3885712E-1,2.6649958E-1,4.4602486E-1,-1.18936084E-1,1.0674171E-1,1.8551141E-1,-1.26828E-1,1.6776296E-1],"categories":[],"categories_nodes":[],"categories_segments":[],"categories_sizes":[],"default_left":[0,0,0,0,0,0,0,0,0,0,0],"id":8,"left_children":[1,3,-1,-1,5,7,-1,9,-1,-1,-1],"loss_changes":[8.967615E1,1.6252651E0,0E0,0E0,1.2691385E0,3.8381588E-1,0E0,1.1468161E0,0E0,0E0,0E0],"parents":[2147483647,0,0,1,1,4,4,5,5,7,7],"right_children":[2,4,-1,-1,6,8,-1,10,-1,-1,-1],"split_conditions":[4.650827E1,4.334548E1,-1.8520847E-1,2.3885712E-1,7.2E0,1.84E1,-1.18936084E-1,5.8E0,1.8551141E-1,-1.26828E-1,1.6776296E-1],"split_indices":[4,4,0,0,1,2,0,1,0,0,0],"split_type":[0,0,0,0,0,0,0,0,0,0,0],"sum_hessian":[1.4478817E3,5.1322258E1,1.3965596E3,4.314448E1,8.177777E0,6.692648E0,1.4851295E0,2.7999601E0,3.8926878E0,1.3204082E0,1.4795519E0],"tree_param":{"num_deleted":"0","num_feature":"5","num_nodes":"11","size_leaf_vector":"1"}},{"base_weights":[6.509358E-1,-1.7336309E-1,6.981457E-1,1.2223563E-1,2.1013165E-1,-2.8529897E-1,4.7221744E-1,1.7904911E-2,-1.300191E-1,1.6782898E-1,4.985919E-2],"categories":[],"categories_nodes":[],"categories_segments":[],"categories_sizes":[],"default_left":[0,0,0,0,0,0,0,0,0,0,0],"id":9,"left_children":[1,-1,3,5,-1,7,9,-1,-1,-1,-1],"loss_changes":[1.0787634E2,0E0,2.2710571E0,1.316931E0,0E0,2.5336686E-1,3.608632E-2,0E0,0E0,0E0,0E0],"parents":[2147483647,0,0,2,2,3,3,5,5,6,6],"right_children":[2,-1,4,6,-1,8,10,-1,-1,-1,-1],"split_conditions":[5.9584713E1,-1.7336309E-1,6.056866E1,1.45E1,2.1013165E-1,5.5E1,6.7E0,1.7904911E-2,-1.300191E-1,1.6782898E-1,4.985919E-2],"split_indices":[4,0,4,2,0,0,1,0,0,0,0],"split_type":[0,0,0,0,0,0,0,0,0,0,0],"sum_hessian":[1.851594E3,6.80888E1,1.7835051E3,7.2886524E0,1.7762166E3,3.4528341E0,3.8358183E0,1.2163804E0,2.2364538E0,2.3406703E0,1.4951478E0],"tree_param":{"num_deleted":"0","num_feature":"5","num_nodes":"11","size_leaf_vector":"1"}},{"base_weights":[-4.9945194E-1,3.4853682E-1,-1.7492352E-1,-1.6847438E-1,6.0546464E-1,1.3780157E-1,6.4957595E-1,-1.1025127E-1,4.413249E-1,2.0791176E-1,2.3057777E-1,7.868052E-2,-1.3821246E-1,3.533844E-2,1.5747114E-1,5.1331025E-1,-2.4167167E-1,4.4902276E-2,1.8115294E-1,-1.16672724E-1,1.0239908E-2],"categories":[],"categories_nodes":[],"categories_segments":[],"categories_sizes":[],"default_left":[0,0,0,0,0,0,0,0,0,0,0,0,0,0,0,0,0,0,0,0,0],"id":10,"left_children":[1,3,-1,-1,5,7,9,11,13,-1,15,-1,-1,-1,-1,17,19,-1,-1,-1,-1],"loss_changes":[8.334009E1,2.5094349E1,0E0,0E0,1.6234989E0,6.83089E-1,1.2171593E0,8.30654E-1,4.604447E-2,0E0,1.272958E0,0E0,0E0,0E0,0E0,9.7350836E-2,1.717412E-1,0E0,0E0,0E0,0E0],"parents":[2147483647,0,0,1,1,4,4,5,5,6,6,7,7,8,8,10,10,15,15,16,16],"right_children":[2,4,-1,-1,6,8,10,12,14,-1,16,-1,-1,-1,-1,18,20,-1,-1,-1,-1],"split_conditions":[6.056866E1,4.334548E1,-1.7492352E-1,-1.6847438E-1,4.650827E1,6.2E0,5.9584713E1,1.84E1,7.2E0,2.0791176E-1,1.45E1,7.868052E-2,-1.3821246E-1,3.533844E-2,1.5747114E-1,5.5E1,6.7E0,4.4902276E-2,1.8115294E-1,-1.16672724E-1,1.0239908E-2],"split_indices":[4,4,0,0,4,1,4,2,1,0,2,0,0,0,0,0,1,0,0,0,0],"split_type":[0,0,0,0,0,0,0,0,0,0,0,0,0,0,0,0,0,0,0,0,0],"sum_hessian":[1.1713573E3,1.0486256E2,1.0664948E3,2.2824686E1,8.203787E1,7.4265356E0,7.4611336E1,4.4371004E0,2.9894352E0,6.700661E1,7.6047287E0,2.2728274E0,2.164273E0,1.1083696E0,1.8810656E0,4.7024546E0,2.9022744E0,1.4662691E0,3.2361853E0,1.6247946E0,1.2774798E0],"tree_param":{"num_deleted":"0","num_feature":"5","num_nodes":"21","size_leaf_vector":"1"}},{"base_weights":[-5.35681E-1,6.1432326E-1,-1.749579E-1,2.0649526E-1,2.1863346E-1,3.6950856E-1,-1.0799228E-1,-6.158564E-3,4.5704234E-1,-2.7069833E-2,1.9171403E-1],"categories":[],"categories_nodes":[],"categories_segments":[],"categories_sizes":[],"default_left":[0,0,0,0,0,0,0,0,0,0,0],"id":11,"left_children":[1,3,-1,-1,5,7,-1,-1,9,-1,-1],"loss_changes":[6.363681E1,1.2090988E0,0E0,0E0,8.995757E-1,2.6402152E-1,0E0,0E0,6.6867983E-1,0E0,0E0],"parents":[2147483647,0,0,1,1,4,4,5,5,8,8],"right_children":[2,4,-1,-1,6,8,-1,-1,10,-1,-1],"split_conditions":[4.650827E1,4.334548E1,-1.749579E-1,2.0649526E-1,7.2E0,5.4E0,-1.0799228E-1,-6.158564E-3,6.1E1,-2.7069833E-2,1.9171403E-1],"split_indices":[4,4,0,0,1,1,0,0,0,0,0],"split_type":[0,0,0,0,0,0,0,0,0,0,0],"sum_hessian":[1.1571216E3,4.5435966E1,1.1116857E3,3.7654934E1,7.7810326E0,6.4583626E0,1.3226699E0,1.324055E0,5.134308E0,1.4071946E0,3.7271132E0],"tree_param":{"num_deleted":"0","num_feature":"5","num_nodes":"11","size_leaf_vector":"1"}},{"base_weights":[5.917661E-1,-1.6583514E-1,6.3386714E-1,1.0778589E-1,1.9086382E-1,-2.4829873E-1,4.047288E-1,1.9454183E-2,-1.19401276E-1,1.46458E-1,4.1080944E-2],"categories":[],"categories_nodes":[],"categories_segments":[],"categories_sizes":[],"default_left":[0,0,0,0,0,0,0,0,0,0,0],"id":12,"left_children":[1,-1,3,5,-1,7,9,-1,-1,-1,-1],"loss_changes":[7.387958E1,0E0,1.748169E0,9.1879857E-1,0E0,2.1983808E-1,3.5968482E-2,0E0,0E0,0E0,0E0],"parents":[2147483647,0,0,2,2,3,3,5,5,6,6],"right_children":[2,-1,4,6,-1,8,10,-1,-1,-1,-1],"split_conditions":[5.9584713E1,-1.6583514E-1,6.056866E1,1.45E1,1.9086382E-1,3.6E0,6.7E0,1.9454183E-2,-1.19401276E-1,1.46458E-1,4.1080944E-2],"split_indices":[4,0,4,2,0,2,1,0,0,0,0],"split_type":[0,0,0,0,0,0,0,0,0,0,0],"sum_hessian":[1.5249227E3,5.3672176E1,1.4712506E3,6.7390738E0,1.4645116E3,3.1388636E0,3.6002102E0,1.1985774E0,1.940286E0,2.117276E0,1.4829342E0],"tree_param":{"num_deleted":"0","num_feature":"5","num_nodes":"11","size_leaf_vector":"1"}},{"base_weights":[-4.7604817E-1,3.1494367E-1,-1.6783221E-1,-1.5989885E-1,5.3911775E-1,1.2552418E-1,5.826177E-1,-9.672175E-2,3.9487997E-1,-4.6792053E-2,6.0171527E-1,7.099618E-2,-1.2927067E-1,3.6676913E-2,1.3771664E-1,1.8824397E-1,2.9226434E-1,1.4438758E-2,1.5337965E-1],"categories":[],"categories_nodes":[],"categories_segments":[],"categories_sizes":[],"default_left":[0,0,0,0,0,0,0,0,0,0,0,0,0,0,0,0,0,0,0],"id":13,"left_children":[1,3,-1,-1,5,7,9,11,13,-1,15,-1,-1,-1,-1,-1,17,-1,-1],"loss_changes":[6.0915344E1,1.7102365E1,0E0,0E0,1.1945457E0,5.1590776E-1,9.892597E-1,6.785831E-1,1.0438919E-2,0E0,3.116169E-1,0E0,0E0,0E0,0E0,0E0,3.3061022E-1,0E0,0E0],"parents":[2147483647,0,0,1,1,4,4,5,5,6,6,7,7,8,8,10,10,16,16],"right_children":[2,4,-1,-1,6,8,10,12,14,-1,16,-1,-1,-1,-1,-1,18,-1,-1],"split_conditions":[6.056866E1,4.334548E1,-1.6783221E-1,-1.5989885E-1,4.650827E1,6.2E0,1.16E0,1.84E1,7.2E0,-4.6792053E-2,5.9584713E1,7.099618E-2,-1.2927067E-1,3.6676913E-2,1.3771664E-1,1.8824397E-1,6.9E1,1.4438758E-2,1.5337965E-1],"split_indices":[4,4,0,0,4,1,3,2,1,0,4,0,0,0,0,0,0,0,0],"split_type":[0,0,0,0,0,0,0,0,0,0,0,0,0,0,0,0,0,0,0],"sum_hessian":[9.198095E2,8.746001E1,8.323495E2,1.7999437E1,6.946057E1,6.980095E0,6.2480476E1,4.175663E0,2.8044322E0,1.39417E0,6.1086308E1,2.2364435E0,1.9392195E0,1.0879114E0,1.7165208E0,5.5442497E1,5.64381E0,3.2455475E0,2.398262E0],"tree_param":{"num_deleted":"0","num_feature":"5","num_nodes":"19","size_leaf_vector":"1"}},{"base_weights":[-5.119794E-1,5.450627E-1,-1.6787006E-1,1.8653761E-1,1.804757E-1,3.0958703E-1,-9.821175E-2,-9.496962E-3,3.9242843E-1,-3.027365E-2,1.7168146E-1],"categories":[],"categories_nodes":[],"categories_segments":[],"categories_sizes":[],"default_left":[0,0,0,0,0,0,0,0,0,0,0],"id":14,"left_children":[1,3,-1,-1,5,7,-1,-1,9,-1,-1],"loss_changes":[4.5955887E1,9.956627E-1,0E0,0E0,6.452157E-1,2.1390283E-1,0E0,0E0,5.7320136E-1,0E0,0E0],"parents":[2147483647,0,0,1,1,4,4,5,5,8,8],"right_children":[2,4,-1,-1,6,8,-1,-1,10,-1,-1],"split_conditions":[4.650827E1,4.334548E1,-1.6787006E-1,1.8653761E-1,7.2E0,5.4E0,-9.821175E-2,-9.496962E-3,6.1E1,-3.027365E-2,1.7168146E-1],"split_indices":[4,4,0,0,1,1,0,0,0,0,0],"split_type":[0,0,0,0,0,0,0,0,0,0,0],"sum_hessian":[9.0653613E2,3.860326E1,8.6793286E2,3.1308704E1,7.294556E0,6.1272154E0,1.1673406E0,1.317594E0,4.8096213E0,1.4021554E0,3.407466E0],"tree_param":{"num_deleted":"0","num_feature":"5","num_nodes":"11","size_leaf_vector":"1"}},{"base_weights":[5.532628E-1,-1.6018917E-1,5.9234667E-1,9.739278E-2,1.7848481E-1,-2.2667189E-1,3.6531508E-1,-1.13344885E-1,2.10917E-2,1.342328E-1,3.5959914E-2],"categories":[],"categories_nodes":[],"categories_segments":[],"categories_sizes":[],"default_left":[0,0,0,0,0,0,0,0,0,0,0],"id":15,"left_children":[1,-1,3,5,-1,7,9,-1,-1,-1,-1],"loss_changes":[5.2101044E1,0E0,1.4581299E0,7.2112364E-1,0E0,2.0361307E-1,3.521222E-2,0E0,0E0,0E0,0E0],"parents":[2147483647,0,0,2,2,3,3,5,5,6,6],"right_children":[2,-1,4,6,-1,8,10,-1,-1,-1,-1],"split_conditions":[5.9584713E1,-1.6018917E-1,6.056866E1,1.45E1,1.7848481E-1,5.9E0,6.7E0,-1.13344885E-1,2.10917E-2,1.342328E-1,3.5959914E-2],"split_indices":[4,0,4,2,0,1,1,0,0,0,0],"split_type":[0,0,0,0,0,0,0,0,0,0,0],"sum_hessian":[1.217666E3,4.181455E1,1.1758516E3,6.351836E0,1.1694996E3,2.9444044E0,3.407432E0,1.7709093E0,1.173495E0,1.936513E0,1.4709191E0],"tree_param":{"num_deleted":"0","num_feature":"5","num_nodes":"11","size_leaf_vector":"1"}},{"base_weights":[-4.5871696E-1,2.8909254E-1,-1.6281773E-1,-1.5289062E-1,4.8882568E-1,1.1588031E-1,5.332178E-1,-8.550258E-2,1.0771741E-1,1.7525166E-1,1.6242735E-1,6.477613E-2,-1.2160868E-1,3.957616E-1,-2.0612203E-1,1.4726195E-1,2.5475759E-2,-1.0734302E-1,7.2415243E-3],"categories":[],"categories_nodes":[],"categories_segments":[],"categories_sizes":[],"default_left":[0,0,0,0,0,0,0,0,0,0,0,0,0,0,0,0,0,0,0],"id":16,"left_children":[1,3,-1,-1,5,7,9,11,-1,-1,13,-1,-1,15,17,-1,-1,-1,-1],"loss_changes":[4.4968094E1,1.1845753E1,0E0,0E0,9.093857E-1,3.988402E-1,8.902769E-1,5.61852E-1,0E0,0E0,7.424454E-1,0E0,0E0,1.0756308E-1,1.3566208E-1,0E0,0E0,0E0,0E0],"parents":[2147483647,0,0,1,1,4,4,5,5,6,6,7,7,10,10,13,13,14,14],"right_children":[2,4,-1,-1,6,8,10,12,-1,-1,14,-1,-1,16,18,-1,-1,-1,-1],"split_conditions":[6.056866E1,4.334548E1,-1.6281773E-1,-1.5289062E-1,4.650827E1,6.2E0,5.9584713E1,1.84E1,1.0771741E-1,1.7525166E-1,1.45E1,6.477613E-2,-1.2160868E-1,5.9E0,7.6E1,1.4726195E-1,2.5475759E-2,-1.0734302E-1,7.2415243E-3],"split_indices":[4,4,0,0,4,1,4,2,0,0,2,0,0,1,0,0,0,0,0],"split_type":[0,0,0,0,0,0,0,0,0,0,0,0,0,0,0,0,0,0,0],"sum_hessian":[7.122976E2,7.169136E1,6.4060626E2,1.403083E1,5.7660526E1,6.5173783E0,5.1143147E1,3.9197273E0,2.597651E0,4.445818E1,6.6849675E0,2.1853209E0,1.7344067E0,4.048172E0,2.6367955E0,2.656244E0,1.391928E0,1.255667E0,1.3811287E0],"tree_param":{"num_deleted":"0","num_feature":"5","num_nodes":"19","size_leaf_vector":"1"}},{"base_weights":[-4.9480307E-1,4.9397555E-1,-1.62861E-1,1.7311116E-1,1.5015706E-1,2.6241383E-1,-8.947185E-2,3.2232307E-2,3.868035E-1,-1.1305991E-1,1.2481013E-1,1.5450154E-1,3.2307234E-2],"categories":[],"categories_nodes":[],"categories_segments":[],"categories_sizes":[],"default_left":[0,0,0,0,0,0,0,0,0,0,0,0,0],"id":17,"left_children":[1,3,-1,-1,5,7,-1,9,11,-1,-1,-1,-1],"loss_changes":[3.3602615E1,8.568659E-1,0E0,0E0,4.6988747E-1,1.809268E-1,0E0,7.001278E-1,9.81881E-2,0E0,0E0,0E0,0E0],"parents":[2147483647,0,0,1,1,4,4,5,5,7,7,8,8],"right_children":[2,4,-1,-1,6,8,-1,10,12,-1,-1,-1,-1],"split_conditions":[4.650827E1,4.334548E1,-1.62861E-1,1.7311116E-1,7.2E0,1.84E1,-8.947185E-2,5.8E0,6.38E1,-1.1305991E-1,1.2481013E-1,1.5450154E-1,3.2307234E-2],"split_indices":[4,4,0,0,1,2,0,1,2,0,0,0,0],"split_type":[0,0,0,0,0,0,0,0,0,0,0,0,0],"sum_hessian":[7.003717E2,3.203832E1,6.683334E2,2.5258024E1,6.7802935E0,5.754435E0,1.0258588E0,2.4604769E0,3.2939582E0,1.1997344E0,1.2607423E0,1.6780486E0,1.6159095E0],"tree_param":{"num_deleted":"0","num_feature":"5","num_nodes":"13","size_leaf_vector":"1"}},{"base_weights":[5.269865E-1,-1.5566236E-1,5.642799E-1,8.733553E-2,1.7017014E-1,-1.9637506E-1,3.1786582E-1,2.152946E-2,-1.0435454E-1,2.8857885E-2,1.2721659E-1],"categories":[],"categories_nodes":[],"categories_segments":[],"categories_sizes":[],"default_left":[0,0,0,0,0,0,0,0,0,0,0],"id":18,"left_children":[1,-1,3,5,-1,7,9,-1,-1,-1,-1],"loss_changes":[3.7474823E1,0E0,1.2479553E0,5.1047903E-1,0E0,1.7480466E-1,5.716586E-2,0E0,0E0,0E0,0E0],"parents":[2147483647,0,0,2,2,3,3,5,5,6,6],"right_children":[2,-1,4,6,-1,8,10,-1,-1,-1,-1],"split_conditions":[5.9584713E1,-1.5566236E-1,6.056866E1,1.45E1,1.7017014E-1,3.6E0,2.33E1,2.152946E-2,-1.0435454E-1,2.8857885E-2,1.2721659E-1],"split_indices":[4,0,4,2,0,2,2,0,0,0,0],"split_type":[0,0,0,0,0,0,0,0,0,0,0],"sum_hessian":[9.522937E2,3.2343254E1,9.1995044E2,5.850635E0,9.140998E2,2.689214E0,3.161421E0,1.1607184E0,1.5284956E0,1.6412134E0,1.5202076E0],"tree_param":{"num_deleted":"0","num_feature":"5","num_nodes":"11","size_leaf_vector":"1"}},{"base_weights":[-4.4556952E-1,2.6725397E-1,-1.5920609E-1,-1.467049E-1,4.479407E-1,9.8248534E-2,4.9639726E-1,-8.261818E-2,3.1294987E-1,1.6609064E-1,1.3856663E-1,5.440769E-2,-1.11959144E-1,3.0576525E-2,1.1041807E-1,2.8669554E-1,-1.0127255E-1,4.0071944E-4,1.6530964E-1],"categories":[],"categories_nodes":[],"categories_segments":[],"categories_sizes":[],"default_left":[0,0,0,0,0,0,0,0,0,0,0,0,0,0,0,0,0,0,0],"id":19,"left_children":[1,3,-1,-1,5,7,9,11,13,-1,15,-1,-1,-1,-1,17,-1,-1,-1],"loss_changes":[3.333822E1,8.28513E0,0E0,0E0,7.674103E-1,3.0191007E-1,7.846966E-1,4.2433676E-1,2.717495E-3,0E0,5.999199E-1,0E0,0E0,0E0,0E0,4.504701E-1,0E0,0E0,0E0],"parents":[2147483647,0,0,1,1,4,4,5,5,6,6,7,7,8,8,10,10,15,15],"right_children":[2,4,-1,-1,6,8,10,12,14,-1,16,-1,-1,-1,-1,18,-1,-1,-1],"split_conditions":[6.056866E1,4.334548E1,-1.5920609E-1,-1.467049E-1,4.650827E1,6.2E0,5.9584713E1,1.84E1,7.2E0,1.6609064E-1,2.33E1,5.440769E-2,-1.11959144E-1,3.0576525E-2,1.1041807E-1,6.9E1,-1.0127255E-1,4.0071944E-4,1.6530964E-1],"split_indices":[4,4,0,0,4,1,4,2,1,0,2,0,0,0,0,0,0,0,0],"split_type":[0,0,0,0,0,0,0,0,0,0,0,0,0,0,0,0,0,0,0],"sum_hessian":[5.461298E2,5.8028145E1,4.8810165E2,1.0861318E1,4.716683E1,6.10889E0,4.1057938E1,3.6496122E0,2.4592776E0,3.4924294E1,6.1336465E0,2.1092916E0,1.5403206E0,1.0992914E0,1.3599863E0,4.9817038E0,1.1519426E0,2.8788965E0,2.1028075E0],"tree_param":{"num_deleted":"0","num_feature":"5","num_nodes":"19","size_leaf_vector":"1"}},{"base_weights":[-4.817137E-1,4.54222E-1,-1.5925297E-1,1.6337854E-1,1.3302936E-1,2.7955726E-1,-4.3677382E-2,-1.1327665E-2,1.464001E-1],"categories":[],"categories_nodes":[],"categories_segments":[],"categories_sizes":[],"default_left":[0,0,0,0,0,0,0,0,0],"id":20,"left_children":[1,3,-1,-1,5,7,-1,-1,-1],"loss_changes":[2.492466E1,7.203398E-1,0E0,0E0,3.3956435E-1,3.5839203E-1,0E0,0E0,0E0],"parents":[2147483647,0,0,1,1,4,4,5,5],"right_children":[2,4,-1,-1,6,8,-1,-1,-1],"split_conditions":[4.650827E1,4.334548E1,-1.5925297E-1,1.6337854E-1,6.2E0,1.84E1,-4.3677382E-2,-1.1327665E-2,1.464001E-1],"split_indices":[4,4,0,0,1,2,0,0,0],"split_type":[0,0,0,0,0,0,0,0,0],"sum_hessian":[5.35809E2,2.6311874E1,5.0949716E2,1.9991404E1,6.32047E0,4.13991E0,2.1805599E0,1.9659564E0,2.1739538E0],"tree_param":{"num_deleted":"0","num_feature":"5","num_nodes":"9","size_leaf_vector":"1"}},{"base_weights":[5.082688E-1,-1.5181543E-1,5.445543E-1,7.951478E-2,1.6440988E-1,-1.7394005E-1,2.8336346E-1,2.0709682E-2,-9.69377E-2,1.19578786E-1,1.8602913E-2],"categories":[],"categories_nodes":[],"categories_segments":[],"categories_sizes":[],"default_left":[0,0,0,0,0,0,0,0,0,0,0],"id":21,"left_children":[1,-1,3,5,-1,7,9,-1,-1,-1,-1],"loss_changes":[2.7340073E1,0E0,1.1056824E0,3.822509E-1,0E0,1.488964E-1,7.6090634E-2,0E0,0E0,0E0,0E0],"parents":[2147483647,0,0,2,2,3,3,5,5,6,6],"right_children":[2,-1,4,6,-1,8,10,-1,-1,-1,-1],"split_conditions":[5.9584713E1,-1.5181543E-1,6.056866E1,1.45E1,1.6440988E-1,3.6E0,7.6E1,2.0709682E-2,-9.69377E-2,1.19578786E-1,1.8602913E-2],"split_indices":[4,0,4,2,0,2,0,0,0,0,0],"split_type":[0,0,0,0,0,0,0,0,0,0,0],"sum_hessian":[7.343468E2,2.4915487E1,7.0943134E2,5.444468E0,7.039869E2,2.4923408E0,2.952127E0,1.1525325E0,1.3398085E0,1.4148595E0,1.5372674E0],"tree_param":{"num_deleted":"0","num_feature":"5","num_nodes":"11","size_leaf_vector":"1"}},{"base_weights":[-4.347699E-1,2.4749248E-1,-1.5655774E-1,-1.4082286E-1,4.1141522E-1,8.5437916E-2,4.6457234E-1,-7.4181035E-2,2.7052608E-1,1.5920204E-1,1.17449254E-1,4.4896167E-2,-1.0182189E-1,2.2953238E-2,1.0078599E-1,2.4752933E-1,-9.2016034E-2,-4.9006417E-3,1.5327309E-1],"categories":[],"categories_nodes":[],"categories_segments":[],"categories_sizes":[],"default_left":[0,0,0,0,0,0,0,0,0,0,0,0,0,0,0,0,0,0,0],"id":22,"left_children":[1,3,-1,-1,5,7,9,11,13,-1,15,-1,-1,-1,-1,17,-1,-1,-1],"loss_changes":[2.4912704E1,5.8214693E0,0E0,0E0,6.4500475E-1,2.1994355E-1,7.120371E-1,3.1304356E-1,1.679492E-2,0E0,4.4465035E-1,0E0,0E0,0E0,0E0,4.0223703E-1,0E0,0E0,0E0],"parents":[2147483647,0,0,1,1,4,4,5,5,6,6,7,7,8,8,10,10,15,15],"right_children":[2,4,-1,-1,6,8,10,12,14,-1,16,-1,-1,-1,-1,18,-1,-1,-1],"split_conditions":[6.056866E1,4.334548E1,-1.5655774E-1,-1.4082286E-1,4.650827E1,6.2E0,5.9584713E1,1.84E1,7.2E0,1.5920204E-1,2.33E1,4.4896167E-2,-1.0182189E-1,2.2953238E-2,1.0078599E-1,6.9E1,-9.2016034E-2,-4.9006417E-3,1.5327309E-1],"split_indices":[4,4,0,0,4,1,4,2,1,0,2,0,0,0,0,0,0,0,0],"split_type":[0,0,0,0,0,0,0,0,0,0,0,0,0,0,0,0,0,0,0],"sum_hessian":[4.1610724E2,4.6894085E1,3.6921313E2,8.380237E0,3.851385E1,5.7654514E0,3.2748398E1,3.4174633E0,2.3479881E0,2.7065634E1,5.682765E0,2.0896587E0,1.3278044E0,1.1392133E0,1.2087748E0,4.6677446E0,1.0150204E0,2.8002892E0,1.8674555E0],"tree_param":{"num_deleted":"0","num_feature":"5","num_nodes":"19","size_leaf_vector":"1"}},{"base_weights":[-4.712944E-1,4.1775012E-1,-1.5661003E-1,1.5577526E-1,1.1497844E-1,2.4477008E-1,-3.7512183E-2,-8.139677E-3,1.3100903E-1],"categories":[],"categories_nodes":[],"categories_segments":[],"categories_sizes":[],"default_left":[0,0,0,0,0,0,0,0,0],"id":23,"left_children":[1,3,-1,-1,5,7,-1,-1,-1],"loss_changes":[1.8634148E1,6.347449E-1,0E0,0E0,2.4736184E-1,2.65157E-1,0E0,0E0,0E0],"parents":[2147483647,0,0,1,1,4,4,5,5],"right_children":[2,4,-1,-1,6,8,-1,-1,-1],"split_conditions":[4.650827E1,4.334548E1,-1.5661003E-1,1.5577526E-1,6.2E0,1.84E1,-3.7512183E-2,-8.139677E-3,1.3100903E-1],"split_indices":[4,4,0,0,1,2,0,0,0],"split_type":[0,0,0,0,0,0,0,0,0],"sum_hessian":[4.0725497E2,2.1597212E1,3.8565778E2,1.5639317E1,5.957896E0,3.8540194E0,2.1038768E0,1.9500364E0,1.903983E0],"tree_param":{"num_deleted":"0","num_feature":"5","num_nodes":"9","size_leaf_vector":"1"}},{"base_weights":[4.9438497E-1,-1.4830118E-1,5.3021395E-1,7.1948946E-2,1.6032395E-1,-1.5544525E-1,2.5421405E-1,-9.116871E-2,2.1259036E-2,1.1038249E-1,1.3876847E-2],"categories":[],"categories_nodes":[],"categories_segments":[],"categories_sizes":[],"default_left":[0,0,0,0,0,0,0,0,0,0,0],"id":24,"left_children":[1,-1,3,5,-1,7,9,-1,-1,-1,-1],"loss_changes":[2.016478E1,0E0,1.0058441E0,2.9163206E-1,0E0,1.3330723E-1,7.1811974E-2,0E0,0E0,0E0,0E0],"parents":[2147483647,0,0,2,2,3,3,5,5,6,6],"right_children":[2,-1,4,6,-1,8,10,-1,-1,-1,-1],"split_conditions":[5.9584713E1,-1.4830118E-1,6.056866E1,1.45E1,1.6032395E-1,5.9E0,7.6E1,-9.116871E-2,2.1259036E-2,1.1038249E-1,1.3876847E-2],"split_indices":[4,0,4,2,0,1,0,0,0,0,0],"split_type":[0,0,0,0,0,0,0,0,0,0,0],"sum_hessian":[5.6082697E2,1.916484E1,5.416621E2,5.082988E0,5.365791E2,2.3269851E0,2.7560024E0,1.1981831E0,1.1288022E0,1.2843251E0,1.4716773E0],"tree_param":{"num_deleted":"0","num_feature":"5","num_nodes":"11","size_leaf_vector":"1"}},{"base_weights":[-4.2533308E-1,2.2846384E-1,-1.5457408E-1,-1.3487983E-1,3.7702945E-1,7.3643625E-2,4.354896E-1,-3.0474817E-2,9.2502676E-2,1.5363726E-1,1.00115865E-1,1.6979808E-1,-7.1431376E-2,2.7580762E-1,-1.501312E-1,-9.178704E-3,8.193183E-2,1.1408531E-1,7.819349E-3,-9.1853976E-2,1.7081197E-2],"categories":[],"categories_nodes":[],"categories_segments":[],"categories_sizes":[],"default_left":[0,0,0,0,0,0,0,0,0,0,0,0,0,0,0,0,0,0,0,0,0],"id":25,"left_children":[1,3,-1,-1,5,7,9,11,-1,-1,13,15,-1,17,19,-1,-1,-1,-1,-1,-1],"loss_changes":[1.8742203E1,4.097869E0,0E0,0E0,5.449071E-1,1.6724011E-1,6.4451647E-1,2.6432893E-1,0E0,0E0,3.1744945E-1,7.718074E-2,0E0,9.553251E-2,1.2203878E-1,0E0,0E0,0E0,0E0,0E0,0E0],"parents":[2147483647,0,0,1,1,4,4,5,5,6,6,7,7,10,10,11,11,13,13,14,14],"right_children":[2,4,-1,-1,6,8,10,12,-1,-1,14,16,-1,18,20,-1,-1,-1,-1,-1,-1],"split_conditions":[6.056866E1,4.334548E1,-1.5457408E-1,-1.3487983E-1,4.650827E1,7.2E0,5.9584713E1,6.3E1,9.2502676E-2,1.5363726E-1,1.45E1,5.5E1,-7.1431376E-2,5.9E0,7.6E1,-9.178704E-3,8.193183E-2,1.1408531E-1,7.819349E-3,-9.1853976E-2,1.7081197E-2],"split_indices":[4,4,0,0,4,1,4,0,0,0,2,0,0,1,0,0,0,0,0,0,0],"split_type":[0,0,0,0,0,0,0,0,0,0,0,0,0,0,0,0,0,0,0,0,0],"sum_hessian":[3.1582172E2,3.799621E1,2.778255E2,6.4646864E0,3.1531523E1,5.459343E0,2.607218E1,4.384443E0,1.0748999E0,2.0793692E1,5.2784877E0,2.3245068E0,2.059936E0,3.0412009E0,2.2372868E0,1.0301307E0,1.294376E0,1.7756705E0,1.2655303E0,1.0028726E0,1.2344143E0],"tree_param":{"num_deleted":"0","num_feature":"5","num_nodes":"21","size_leaf_vector":"1"}},{"base_weights":[-4.6246877E-1,3.8413295E-1,-1.5463349E-1,1.493496E-1,1.0036696E-1,2.158642E-1,-3.2171912E-2,-2.8029116E-2,3.4382406E-1,2.9330185E-2,1.2137173E-1],"categories":[],"categories_nodes":[],"categories_segments":[],"categories_sizes":[],"default_left":[0,0,0,0,0,0,0,0,0,0,0],"id":26,"left_children":[1,3,-1,-1,5,7,-1,-1,9,-1,-1],"loss_changes":[1.406636E1,5.560427E-1,0E0,0E0,1.820167E-1,2.1374686E-1,0E0,0E0,1.2161374E-2,0E0,0E0],"parents":[2147483647,0,0,1,1,4,4,5,5,8,8],"right_children":[2,4,-1,-1,6,8,-1,-1,10,-1,-1],"split_conditions":[4.650827E1,4.334548E1,-1.5463349E-1,1.493496E-1,6.2E0,5.4E0,-3.2171912E-2,-2.8029116E-2,6.7E1,2.9330185E-2,1.2137173E-1],"split_indices":[4,4,0,0,1,1,0,0,0,0,0],"split_type":[0,0,0,0,0,0,0,0,0,0,0],"sum_hessian":[3.0821832E2,1.7782866E1,2.9043546E2,1.2157312E1,5.625553E0,3.589077E0,2.0364764E0,1.1292905E0,2.4597867E0,1.0037109E0,1.4560757E0],"tree_param":{"num_deleted":"0","num_feature":"5","num_nodes":"11","size_leaf_vector":"1"}},{"base_weights":[4.8354667E-1,-1.448981E-1,5.1940185E-1,6.415162E-2,1.5736534E-1,-8.235182E-2,1.0287475E-1,1.6072904E-1,-1.2441196E-1,3.60684E-4,6.8611674E-2],"categories":[],"categories_nodes":[],"categories_segments":[],"categories_sizes":[],"default_left":[0,0,0,0,0,0,0,0,0,0,0],"id":27,"left_children":[1,-1,3,5,-1,7,-1,9,-1,-1,-1],"loss_changes":[1.5031937E1,0E0,9.315491E-1,2.62839E-1,0E0,4.3600675E-1,0E0,3.6174357E-2,0E0,0E0,0E0],"parents":[2147483647,0,0,2,2,3,3,5,5,7,7],"right_children":[2,-1,4,6,-1,8,-1,10,-1,-1,-1],"split_conditions":[5.9584713E1,-1.448981E-1,6.056866E1,2.33E1,1.5736534E-1,6.9E1,1.0287475E-1,5.9E0,-1.2441196E-1,3.60684E-4,6.8611674E-2],"split_indices":[4,0,4,2,0,0,0,1,0,0,0],"split_type":[0,0,0,0,0,0,0,0,0,0,0],"sum_hessian":[4.2551477E2,1.477437E1,4.107404E2,4.744362E0,4.0599603E2,3.5717993E0,1.1725628E0,2.3612201E0,1.2105793E0,1.0095958E0,1.3516243E0],"tree_param":{"num_deleted":"0","num_feature":"5","num_nodes":"11","size_leaf_vector":"1"}},{"base_weights":[-4.1631776E-1,2.1019587E-1,-1.5304464E-1,-1.2863466E-1,3.443575E-1,6.7159876E-2,4.0769917E-1,1.5615821E-1,-4.1028418E-2,1.487667E-1,8.572374E-2,1.3222663E-1,-5.410334E-2,2.4517113E-1,-1.2825455E-1,3.62723E-2,-5.1091213E-2,1.2296724E-1,-1.8256927E-2,-8.9258716E-2,3.2815497E-2],"categories":[],"categories_nodes":[],"categories_segments":[],"categories_sizes":[],"default_left":[0,0,0,0,0,0,0,0,0,0,0,0,0,0,0,0,0,0,0,0,0],"id":28,"left_children":[1,3,-1,-1,5,7,9,11,-1,-1,13,-1,15,17,19,-1,-1,-1,-1,-1,-1],"loss_changes":[1.4232704E1,2.8915246E0,0E0,0E0,4.4682527E-1,1.3425492E-1,5.761311E-1,3.1093335E-1,0E0,0E0,2.3251781E-1,0E0,9.481487E-2,2.1248886E-1,1.6018146E-1,0E0,0E0,0E0,0E0,0E0,0E0],"parents":[2147483647,0,0,1,1,4,4,5,5,6,6,7,7,10,10,12,12,13,13,14,14],"right_children":[2,4,-1,-1,6,8,10,12,-1,-1,14,-1,16,18,20,-1,-1,-1,-1,-1,-1],"split_conditions":[6.056866E1,4.334548E1,-1.5304464E-1,-1.2863466E-1,4.650827E1,1.63E0,5.9584713E1,6.5E1,-4.1028418E-2,1.487667E-1,6E0,1.3222663E-1,1.52E0,9.7E0,7.2E1,3.62723E-2,-5.1091213E-2,1.2296724E-1,-1.8256927E-2,-8.9258716E-2,3.2815497E-2],"split_indices":[4,4,0,0,4,3,4,0,0,0,1,0,3,2,0,0,0,0,0,0,0],"split_type":[0,0,0,0,0,0,0,0,0,0,0,0,0,0,0,0,0,0,0,0,0],"sum_hessian":[2.3928474E2,3.1007322E1,2.0827742E2,4.9995775E0,2.6007746E1,5.220766E0,2.078698E1,3.7975893E0,1.423177E0,1.5893554E1,4.893425E0,1.1477884E0,2.649801E0,2.7204716E0,2.1729536E0,1.041173E0,1.6086279E0,1.5479136E0,1.1725581E0,1.1218344E0,1.0511193E0],"tree_param":{"num_deleted":"0","num_feature":"5","num_nodes":"21","size_leaf_vector":"1"}},{"base_weights":[-4.5440808E-1,3.503414E-1,-1.5311217E-1,1.4348252E-1,8.5494176E-2,1.8339826E-1,-2.6412603E-2,-1.4687238E-2,1.12920836E-1],"categories":[],"categories_nodes":[],"categories_segments":[],"categories_sizes":[],"default_left":[0,0,0,0,0,0,0,0,0],"id":29,"left_children":[1,3,-1,-1,5,7,-1,-1,-1],"loss_changes":[1.070525E1,4.9412382E-1,0E0,0E0,1.2421431E-1,2.1533835E-1,0E0,0E0,0E0],"parents":[2147483647,0,0,1,1,4,4,5,5],"right_children":[2,4,-1,-1,6,8,-1,-1,-1],"split_conditions":[4.650827E1,4.334548E1,-1.5311217E-1,1.4348252E-1,6.2E0,1.84E1,-2.6412603E-2,-1.4687238E-2,1.12920836E-1],"split_indices":[4,4,0,0,1,2,0,0,0],"split_type":[0,0,0,0,0,0,0,0,0],"sum_hessian":[2.3272125E2,1.4790093E1,2.1793117E2,9.429399E0,5.360694E0,3.3908465E0,1.9698474E0,1.8772224E0,1.5136242E0],"tree_param":{"num_deleted":"0","num_feature":"5","num_nodes":"9","size_leaf_vector":"1"}},{"base_weights":[4.7457376E-1,-1.4130835E-1,5.107743E-1,5.7019923E-2,1.5517607E-1,-8.074623E-2,9.683149E-2,1.431865E-1,-1.1730031E-1,8.897224E-3,5.87956E-2],"categories":[],"categories_nodes":[],"categories_segments":[],"categories_sizes":[],"default_left":[0,0,0,0,0,0,0,0,0,0,0],"id":30,"left_children":[1,-1,3,5,-1,7,-1,9,-1,-1,-1],"loss_changes":[1.1281006E1,0E0,8.851776E-1,2.2756538E-1,0E0,3.6339217E-1,0E0,1.3979025E-2,0E0,0E0,0E0],"parents":[2147483647,0,0,2,2,3,3,5,5,7,7],"right_children":[2,-1,4,6,-1,8,-1,10,-1,-1,-1],"split_conditions":[5.9584713E1,-1.4130835E-1,6.056866E1,2.33E1,1.5517607E-1,6.9E1,9.683149E-2,6.1E0,-1.1730031E-1,8.897224E-3,5.87956E-2],"split_indices":[4,0,4,2,0,0,0,2,0,0,0],"split_type":[0,0,0,0,0,0,0,0,0,0,0],"sum_hessian":[3.2152426E2,1.1412204E1,3.1011206E2,4.503797E0,3.0560825E2,3.4246247E0,1.0791724E0,2.3017657E0,1.122859E0,1.2264135E0,1.0753522E0],"tree_param":{"num_deleted":"0","num_feature":"5","num_nodes":"11","size_leaf_vector":"1"}},{"base_weights":[-4.0700823E-1,1.9097319E-1,-1.5181479E-1,-1.21960565E-1,3.1088158E-1,5.9772976E-2,3.7834886E-1,1.4060718E-1,-3.6974486E-2,1.4414138E-1,7.3010966E-2,1.2184291E-1,-5.486337E-2,2.2386578E-1,-3.808075E-2,-4.6865802E-2,3.0207952E-2,1.1908079E-3,9.94763E-2],"categories":[],"categories_nodes":[],"categories_segments":[],"categories_sizes":[],"default_left":[0,0,0,0,0,0,0,0,0,0,0,0,0,0,0,0,0,0,0],"id":31,"left_children":[1,3,-1,-1,5,7,9,11,-1,-1,13,-1,15,17,-1,-1,-1,-1,-1],"loss_changes":[1.0897369E1,2.034974E0,0E0,0E0,3.628626E-1,1.0618855E-1,5.183053E-1,2.6277143E-1,0E0,0E0,1.9814801E-1,0E0,7.169744E-2,8.322884E-2,0E0,0E0,0E0,0E0,0E0],"parents":[2147483647,0,0,1,1,4,4,5,5,6,6,7,7,10,10,12,12,13,13],"right_children":[2,4,-1,-1,6,8,10,12,-1,-1,14,-1,16,18,-1,-1,-1,-1,-1],"split_conditions":[6.056866E1,4.334548E1,-1.5181479E-1,-1.21960565E-1,4.650827E1,1.63E0,5.9584713E1,6.5E1,-3.6974486E-2,1.4414138E-1,1.45E1,1.2184291E-1,3.47E1,3.6E0,-3.808075E-2,-4.6865802E-2,3.0207952E-2,1.1908079E-3,9.94763E-2],"split_indices":[4,4,0,0,4,3,4,0,0,0,2,0,2,2,0,0,0,0,0],"split_type":[0,0,0,0,0,0,0,0,0,0,0,0,0,0,0,0,0,0,0],"sum_hessian":[1.8136862E2,2.5639063E1,1.5572957E2,3.8857641E0,2.1753298E1,5.0062656E0,1.6747032E1,3.6333039E0,1.3729616E0,1.2119881E1,4.627152E0,1.0835673E0,2.5497367E0,2.5691595E0,2.0579927E0,1.5412462E0,1.0084904E0,1.185666E0,1.3834934E0],"tree_param":{"num_deleted":"0","num_feature":"5","num_nodes":"19","size_leaf_vector":"1"}},{"base_weights":[-4.4647622E-1,3.177151E-1,-1.5189424E-1,1.3775931E-1,7.3222004E-2,1.5880923E-1,-2.2801105E-2,-1.6176477E-2,1.0460286E-1],"categories":[],"categories_nodes":[],"categories_segments":[],"categories_sizes":[],"default_left":[0,0,0,0,0,0,0,0,0],"id":32,"left_children":[1,3,-1,-1,5,7,-1,-1,-1],"loss_changes":[8.235153E0,4.3116748E-1,0E0,0E0,9.016955E-2,1.8883756E-1,0E0,0E0,0E0],"parents":[2147483647,0,0,1,1,4,4,5,5],"right_children":[2,4,-1,-1,6,8,-1,-1,-1],"split_conditions":[4.650827E1,4.334548E1,-1.5189424E-1,1.3775931E-1,6.2E0,1.84E1,-2.2801105E-2,-1.6176477E-2,1.0460286E-1],"split_indices":[4,4,0,0,1,2,0,0,0],"split_type":[0,0,0,0,0,0,0,0,0],"sum_hessian":[1.7557388E2,1.2436558E1,1.6313733E2,7.3215704E0,5.1149874E0,3.2098062E0,1.9051812E0,1.8514297E0,1.3583764E0],"tree_param":{"num_deleted":"0","num_feature":"5","num_nodes":"9","size_leaf_vector":"1"}},{"base_weights":[4.6668592E-1,-3.0259496E-1,1.5351148E-1,-1.3742721E-1,4.8942897E-2,-1.1804221E-1,2.0075649E-1,-9.905451E-2,4.2286757E-2,1.0765539E-1,-1.4249684E-2],"categories":[],"categories_nodes":[],"categories_segments":[],"categories_sizes":[],"default_left":[0,0,0,0,0,0,0,0,0,0,0],"id":33,"left_children":[1,3,-1,-1,5,7,9,-1,-1,-1,-1],"loss_changes":[8.580761E0,7.920259E-1,0E0,0E0,1.5605938E-1,2.177517E-1,1.389149E-1,0E0,0E0,0E0,0E0],"parents":[2147483647,0,0,1,1,4,4,5,5,6,6],"right_children":[2,4,-1,-1,6,8,10,-1,-1,-1,-1],"split_conditions":[6.056866E1,5.9584713E1,1.5351148E-1,-1.3742721E-1,6E0,9.7E0,7.2E1,-9.905451E-2,4.2286757E-2,1.0765539E-1,-1.4249684E-2],"split_indices":[4,4,0,0,1,2,0,0,0,0,0],"split_type":[0,0,0,0,0,0,0,0,0,0,0],"sum_hessian":[2.4229695E2,1.3079193E1,2.2921776E2,8.857952E0,4.2212415E0,2.1161103E0,2.1051311E0,1.0121987E0,1.1039115E0,1.0139391E0,1.0911919E0],"tree_param":{"num_deleted":"0","num_feature":"5","num_nodes":"11","size_leaf_vector":"1"}},{"base_weights":[-3.9707753E-1,1.7235653E-1,-1.5076527E-1,-1.1484105E-1,2.793017E-1,5.3196225E-2,3.503444E-1,-3.9317932E-2,1.22621424E-1,1.3942696E-1,6.407868E-2,2.4614635E-1,-3.3357203E-2,2.2148824E-1,-1.268007E-1,-7.441225E-3,1.16391346E-1,1.1202222E-1,-1.7554289E-2,-8.796932E-2,3.1679556E-2],"categories":[],"categories_nodes":[],"categories_segments":[],"categories_sizes":[],"default_left":[0,0,0,0,0,0,0,0,0,0,0,0,0,0,0,0,0,0,0,0,0],"id":34,"left_children":[1,3,-1,-1,5,7,9,-1,11,-1,13,15,-1,17,19,-1,-1,-1,-1,-1,-1],"loss_changes":[8.41367E0,1.4375474E0,0E0,0E0,2.9250586E-1,9.039274E-2,4.4709074E-1,0E0,1.6417065E-1,0E0,1.8785484E-1,1.4067739E-1,0E0,1.6130127E-1,1.485146E-1,0E0,0E0,0E0,0E0,0E0,0E0],"parents":[2147483647,0,0,1,1,4,4,5,5,6,6,8,8,10,10,11,11,13,13,14,14],"right_children":[2,4,-1,-1,6,8,10,-1,12,-1,14,16,-1,18,20,-1,-1,-1,-1,-1,-1],"split_conditions":[6.056866E1,4.334548E1,-1.5076527E-1,-1.1484105E-1,4.650827E1,7.9E0,5.9584713E1,-3.9317932E-2,1.63E0,1.3942696E-1,6E0,6.2E0,-3.3357203E-2,9.7E0,7.2E1,-7.441225E-3,1.16391346E-1,1.1202222E-1,-1.7554289E-2,-8.796932E-2,3.1679556E-2],"split_indices":[4,4,0,0,4,2,4,0,3,0,1,1,0,2,0,0,0,0,0,0,0],"split_type":[0,0,0,0,0,0,0,0,0,0,0,0,0,0,0,0,0,0,0,0,0],"sum_hessian":[1.3764526E2,2.1411861E1,1.16233406E2,3.0418677E0,1.8369993E1,4.810034E0,1.3559959E1,1.0734063E0,3.7366273E0,9.242489E0,4.3174706E0,2.410426E0,1.3262014E0,2.2783017E0,2.0391688E0,1.1116918E0,1.2987341E0,1.2607038E0,1.0175978E0,1.0357041E0,1.0034648E0],"tree_param":{"num_deleted":"0","num_feature":"5","num_nodes":"21","size_leaf_vector":"1"}},{"base_weights":[-4.3806484E-1,2.8629473E-1,-1.5086012E-1,1.3191187E-1,6.313023E-2,-3.545291E-2,1.251871E-1,-5.8194418E-2,2.787738E-1,1.08479984E-1,2.4099266E-2],"categories":[],"categories_nodes":[],"categories_segments":[],"categories_sizes":[],"default_left":[0,0,0,0,0,0,0,0,0,0,0],"id":35,"left_children":[1,3,-1,-1,5,-1,7,-1,9,-1,-1],"loss_changes":[6.4113846E0,3.6942005E-1,0E0,0E0,8.110718E-2,0E0,2.9312304E-1,0E0,3.1808615E-2,0E0,0E0],"parents":[2147483647,0,0,1,1,4,4,6,6,8,8],"right_children":[2,4,-1,-1,6,-1,8,-1,10,-1,-1],"split_conditions":[4.650827E1,4.334548E1,-1.5086012E-1,1.3191187E-1,5.4E0,-3.545291E-2,6.1E1,-5.8194418E-2,6.2E0,1.08479984E-1,2.4099266E-2],"split_indices":[4,4,0,0,1,0,0,0,1,0,0],"split_type":[0,0,0,0,0,0,0,0,0,0,0],"sum_hessian":[1.3251952E2,1.06012E1,1.2191831E2,5.7073994E0,4.8938003E0,1.0173032E0,3.876497E0,1.1739349E0,2.7025623E0,1.3266565E0,1.3759058E0],"tree_param":{"num_deleted":"0","num_feature":"5","num_nodes":"11","size_leaf_vector":"1"}},{"base_weights":[4.5894727E-1,-2.753946E-1,1.5219672E-1,-1.331724E-1,4.2364955E-2,-3.3330265E-2,5.0754156E-2],"categories":[],"categories_nodes":[],"categories_segments":[],"categories_sizes":[],"default_left":[0,0,0,0,0,0,0],"id":36,"left_children":[1,3,-1,-1,5,-1,-1],"loss_changes":[6.6582146E0,6.607768E-1,0E0,0E0,1.17420025E-1,0E0,0E0],"parents":[2147483647,0,0,1,1,4,4],"right_children":[2,4,-1,-1,6,-1,-1],"split_conditions":[6.056866E1,5.9584713E1,1.5219672E-1,-1.331724E-1,1.45E1,-3.3330265E-2,5.0754156E-2],"split_indices":[4,4,0,0,2,0,0],"split_type":[0,0,0,0,0,0,0],"sum_hessian":[1.8249638E2,1.0988983E1,1.715074E2,6.9214344E0,4.067549E0,1.8964627E0,2.1710865E0],"tree_param":{"num_deleted":"0","num_feature":"5","num_nodes":"7","size_leaf_vector":"1"}},{"base_weights":[-3.8558033E-1,1.5348269E-1,-1.4979824E-1,2.7061695E-1,-2.7903852E-1,-3.3148255E-2,3.045964E-1,1.3257632E-2,-1.1470714E-1,-2.4971271E-2,3.4252372E-1,8.7501526E-2,4.2469674E-1,9.1502614E-2,-2.0973168E-2,4.3870497E-2,1.3850512E-1],"categories":[],"categories_nodes":[],"categories_segments":[],"categories_sizes":[],"default_left":[0,0,0,0,0,0,0,0,0,0,0,0,0,0,0,0,0],"id":37,"left_children":[1,3,-1,5,7,-1,9,-1,-1,-1,11,13,15,-1,-1,-1,-1],"loss_changes":[6.5683975E0,1.0488675E0,0E0,2.3600864E-1,1.7006934E-1,0E0,2.4345827E-1,0E0,0E0,0E0,2.4588156E-1,1.7714143E-1,3.5022855E-2,0E0,0E0,0E0,0E0],"parents":[2147483647,0,0,1,1,3,3,4,4,6,6,10,10,11,11,12,12],"right_children":[2,4,-1,6,8,-1,10,-1,-1,-1,12,14,16,-1,-1,-1,-1],"split_conditions":[6.056866E1,1.63E0,-1.4979824E-1,1.17E0,1.84E1,-3.3148255E-2,3.4E0,1.3257632E-2,-1.1470714E-1,-2.4971271E-2,4.650827E1,6.7E1,5.5E0,9.1502614E-2,-2.0973168E-2,4.3870497E-2,1.3850512E-1],"split_indices":[4,3,0,3,2,0,2,0,0,0,4,0,1,0,0,0,0],"split_type":[0,0,0,0,0,0,0,0,0,0,0,0,0,0,0,0,0],"sum_hessian":[1.048723E2,1.8212324E1,8.665998E1,1.4625745E1,3.5865793E0,1.0129354E0,1.3612809E1,1.0073559E0,2.5792234E0,1.1062241E0,1.2506585E1,3.5509944E0,8.955591E0,1.0972303E0,2.453764E0,1.6308893E0,7.324702E0],"tree_param":{"num_deleted":"0","num_feature":"5","num_nodes":"17","size_leaf_vector":"1"}},{"base_weights":[-4.2876875E-1,2.56751E-1,-1.4991611E-1,1.2579104E-1,5.4612372E-2,-3.584654E-2,1.1795408E-1,-5.3528547E-2,2.657493E-1,1.0141856E-1,2.4398208E-2],"categories":[],"categories_nodes":[],"categories_segments":[],"categories_sizes":[],"default_left":[0,0,0,0,0,0,0,0,0,0,0],"id":38,"left_children":[1,3,-1,-1,5,-1,7,-1,9,-1,-1],"loss_changes":[5.0507298E0,3.1070262E-1,0E0,0E0,7.6678455E-2,0E0,2.5173706E-1,0E0,1.9370273E-2,0E0,0E0],"parents":[2147483647,0,0,1,1,4,4,6,6,8,8],"right_children":[2,4,-1,-1,6,-1,8,-1,10,-1,-1],"split_conditions":[4.650827E1,4.334548E1,-1.4991611E-1,1.2579104E-1,5.4E0,-3.584654E-2,6.1E1,-5.3528547E-2,6.2E0,1.0141856E-1,2.4398208E-2],"split_indices":[4,4,0,0,1,0,0,0,1,0,0],"split_type":[0,0,0,0,0,0,0,0,0,0,0],"sum_hessian":[1.0020389E2,9.152791E0,9.10511E1,4.4776745E0,4.6751165E0,1.0106997E0,3.6644168E0,1.1503277E0,2.514089E0,1.2075249E0,1.3065642E0],"tree_param":{"num_deleted":"0","num_feature":"5","num_nodes":"11","size_leaf_vector":"1"}},{"base_weights":[4.5103723E-1,-2.4339466E-1,1.5110089E-1,-1.2881526E-1,5.5210564E-2,-2.8889004E-2,5.3336408E-2],"categories":[],"categories_nodes":[],"categories_segments":[],"categories_sizes":[],"default_left":[0,0,0,0,0,0,0],"id":39,"left_children":[1,3,-1,-1,5,-1,-1],"loss_changes":[5.187458E0,6.0335857E-1,0E0,0E0,1.0796945E-1,0E0,0E0],"parents":[2147483647,0,0,1,1,4,4],"right_children":[2,4,-1,-1,6,-1,-1],"split_conditions":[6.056866E1,5.9584713E1,1.5110089E-1,-1.2881526E-1,6E0,-2.8889004E-2,5.3336408E-2],"split_indices":[4,4,0,0,1,0,0],"split_type":[0,0,0,0,0,0,0],"sum_hessian":[1.3757516E2,9.437139E0,1.2813803E2,5.545252E0,3.8918867E0,1.8364336E0,2.055453E0],"tree_param":{"num_deleted":"0","num_feature":"5","num_nodes":"7","size_leaf_vector":"1"}},{"base_weights":[-3.715558E-1,1.3322125E-1,-1.4882724E-1,2.40399E-1,-2.5778246E-1,3.2299516E-1,2.7919594E-2,7.4244486E-3,-1.073985E-1,9.1599956E-2,1.2901023E-1,5.2062478E-2,-3.7342515E-2,8.424631E-2,-5.1072024E-2,-3.418146E-2,1.4391637E-2],"categories":[],"categories_nodes":[],"categories_segments":[],"categories_sizes":[],"default_left":[0,0,0,0,0,0,0,0,0,0,0,0,0,0,0,0,0],"id":40,"left_children":[1,3,-1,5,7,9,11,-1,-1,13,-1,-1,-1,-1,15,-1,-1],"loss_changes":[5.1889315E0,7.708261E-1,0E0,2.3305571E-1,1.255554E-1,2.042743E-1,1.3157633E-1,0E0,0E0,1.3264434E-1,0E0,0E0,0E0,0E0,2.6290383E-2,0E0,0E0],"parents":[2147483647,0,0,1,1,3,3,4,4,5,5,6,6,9,9,14,14],"right_children":[2,4,-1,6,8,10,12,-1,-1,14,-1,-1,-1,-1,16,-1,-1],"split_conditions":[6.056866E1,1.63E0,-1.4882724E-1,5.9584713E1,2.52E1,4.650827E1,6E0,7.4244486E-3,-1.073985E-1,6.7E1,1.2901023E-1,5.2062478E-2,-3.7342515E-2,8.424631E-2,1.43E1,-3.418146E-2,1.4391637E-2],"split_indices":[4,3,0,4,2,4,1,0,0,0,0,0,0,0,2,0,0],"split_type":[0,0,0,0,0,0,0,0,0,0,0,0,0,0,0,0,0],"sum_hessian":[8.049299E1,1.5915005E1,6.457799E1,1.2793391E1,3.1216128E0,8.837792E0,3.9555993E0,1.0144902E0,2.1071227E0,3.3821254E0,5.455667E0,1.9517876E0,2.0038116E0,1.0376399E0,2.3444855E0,1.3421845E0,1.002301E0],"tree_param":{"num_deleted":"0","num_feature":"5","num_nodes":"17","size_leaf_vector":"1"}},{"base_weights":[-4.1790947E-1,-1.4865108E-1,2.401622E-1,1.19816184E-1,5.3316496E-2,-3.8137008E-2,1.8897045E-1,2.8302195E-3,9.17097E-2],"categories":[],"categories_nodes":[],"categories_segments":[],"categories_sizes":[],"default_left":[0,0,0,0,0,0,0,0,0],"id":41,"left_children":[1,-1,3,-1,5,-1,7,-1,-1],"loss_changes":[4.056222E0,0E0,2.4069709E-1,0E0,1.5144622E-1,0E0,6.78218E-2,0E0,0E0],"parents":[2147483647,0,0,2,2,4,4,6,6],"right_children":[2,-1,4,-1,6,-1,8,-1,-1],"split_conditions":[1.49E0,-1.4865108E-1,4.334548E1,1.19816184E-1,5.8E0,-3.8137008E-2,6.5E1,2.8302195E-3,9.17097E-2],"split_indices":[3,0,4,0,1,0,0,0,0],"split_type":[0,0,0,0,0,0,0,0,0],"sum_hessian":[7.610596E1,6.829969E1,7.806267E0,3.6004941E0,4.2057724E0,1.8319253E0,2.3738472E0,1.3611411E0,1.0127062E0],"tree_param":{"num_deleted":"0","num_feature":"5","num_nodes":"9","size_leaf_vector":"1"}},{"base_weights":[4.4180033E-1,-2.180126E-1,1.5012047E-1,-1.2382885E-1,4.6672445E-2,-2.5207438E-2,4.440752E-2],"categories":[],"categories_nodes":[],"categories_segments":[],"categories_sizes":[],"default_left":[0,0,0,0,0,0,0],"id":42,"left_children":[1,3,-1,-1,5,-1,-1],"loss_changes":[4.1666546E0,4.9641138E-1,0E0,0E0,7.6314226E-2,0E0,0E0],"parents":[2147483647,0,0,1,1,4,4],"right_children":[2,4,-1,-1,6,-1,-1],"split_conditions":[6.056866E1,5.9584713E1,1.5012047E-1,-1.2382885E-1,1.45E1,-2.5207438E-2,4.440752E-2],"split_indices":[4,4,0,0,2,0,0],"split_type":[0,0,0,0,0,0,0],"sum_hessian":[1.0393921E2,8.2564535E0,9.568276E1,4.4343176E0,3.8221357E0,1.7440706E0,2.0780652E0],"tree_param":{"num_deleted":"0","num_feature":"5","num_nodes":"7","size_leaf_vector":"1"}},{"base_weights":[-3.554862E-1,1.1496841E-1,-1.4776954E-1,2.1291842E-1,-2.3614582E-1,2.9601678E-1,2.5002338E-2,-2.9652653E-4,-1.0082082E-1,8.349365E-2,1.2302063E-1,4.3306746E-2,-2.9984089E-2,5.9085425E-2,-2.5941318E-2],"categories":[],"categories_nodes":[],"categories_segments":[],"categories_sizes":[],"default_left":[0,0,0,0,0,0,0,0,0,0,0,0,0,0,0],"id":43,"left_children":[1,3,-1,5,7,9,11,-1,-1,13,-1,-1,-1,-1,-1],"loss_changes":[4.131848E0,5.6852406E-1,0E0,1.8479359E-1,8.8042244E-2,1.7038053E-1,8.699686E-2,0E0,0E0,9.809701E-2,0E0,0E0,0E0,0E0,0E0],"parents":[2147483647,0,0,1,1,3,3,4,4,5,5,6,6,9,9],"right_children":[2,4,-1,6,8,10,12,-1,-1,14,-1,-1,-1,-1,-1],"split_conditions":[6.056866E1,1.63E0,-1.4776954E-1,5.9584713E1,5.8E0,4.650827E1,6E0,-2.9652653E-4,-1.0082082E-1,7.3E1,1.2302063E-1,4.3306746E-2,-2.9984089E-2,5.9085425E-2,-2.5941318E-2],"split_indices":[4,3,0,4,1,4,1,0,0,0,0,0,0,0,0],"split_type":[0,0,0,0,0,0,0,0,0,0,0,0,0,0,0],"sum_hessian":[6.2192062E1,1.4068903E1,4.812316E1,1.1307932E1,2.7609708E0,7.441823E0,3.8661091E0,1.1244985E0,1.6364723E0,3.203858E0,4.237965E0,1.8978953E0,1.9682138E0,1.826094E0,1.3777639E0],"tree_param":{"num_deleted":"0","num_feature":"5","num_nodes":"15","size_leaf_vector":"1"}},{"base_weights":[-4.0454668E-1,2.0655997E-1,-1.479694E-1,2.202584E-3,3.4355244E-1,-4.2742494E-2,4.8128903E-2,1.6309626E-2,1.21830724E-1],"categories":[],"categories_nodes":[],"categories_segments":[],"categories_sizes":[],"default_left":[0,0,0,0,0,0,0,0,0],"id":44,"left_children":[1,3,-1,5,7,-1,-1,-1,-1],"loss_changes":[3.303465E0,2.2856313E-1,0E0,1.2115154E-1,6.6510975E-2,0E0,0E0,0E0,0E0],"parents":[2147483647,0,0,1,1,3,3,4,4],"right_children":[2,4,-1,6,8,-1,-1,-1,-1],"split_conditions":[4.650827E1,1.63E0,-1.479694E-1,7.3E1,1.84E1,-4.2742494E-2,4.8128903E-2,1.6309626E-2,1.21830724E-1],"split_indices":[4,3,0,0,2,0,0,0,0],"split_type":[0,0,0,0,0,0,0,0,0],"sum_hessian":[5.8074406E1,7.1913333E0,5.088307E1,3.2938452E0,3.8974884E0,1.7725962E0,1.5212489E0,1.0254911E0,2.871997E0],"tree_param":{"num_deleted":"0","num_feature":"5","num_nodes":"9","size_leaf_vector":"1"}},{"base_weights":[4.3135557E-1,-1.9557399E-1,1.4916594E-1,-1.1843882E-1,3.976985E-2,4.4912595E-2,-2.7174406E-2],"categories":[],"categories_nodes":[],"categories_segments":[],"categories_sizes":[],"default_left":[0,0,0,0,0,0,0],"id":45,"left_children":[1,3,-1,-1,5,-1,-1],"loss_changes":[3.3896208E0,4.0475893E-1,0E0,0E0,8.1095695E-2,0E0,0E0],"parents":[2147483647,0,0,1,1,4,4],"right_children":[2,4,-1,-1,6,-1,-1],"split_conditions":[6.056866E1,5.9584713E1,1.4916594E-1,-1.1843882E-1,6.9E1,4.4912595E-2,-2.7174406E-2],"split_indices":[4,4,0,0,0,0,0],"split_type":[0,0,0,0,0,0,0],"sum_hessian":[7.873356E1,7.298011E0,7.143555E1,3.5853934E0,3.7126174E0,1.9334418E0,1.7791758E0],"tree_param":{"num_deleted":"0","num_feature":"5","num_nodes":"7","size_leaf_vector":"1"}},{"base_weights":[-3.3680835E-1,9.873112E-2,-1.4654046E-1,-8.919858E-2,1.6990323E-1,-3.2633964E-2,2.111482E-1,2.675265E-1,-2.6934505E-2,3.6805207E-1,2.760436E-2,7.730463E-3,1.2905297E-1,6.898626E-2,-4.6308E-2],"categories":[],"categories_nodes":[],"categories_segments":[],"categories_sizes":[],"default_left":[0,0,0,0,0,0,0,0,0,0,0,0,0,0,0],"id":46,"left_children":[1,3,-1,-1,5,-1,7,9,-1,11,13,-1,-1,-1,-1],"loss_changes":[3.317576E0,4.3431118E-1,0E0,0E0,1.629425E-1,0E0,2.0975783E-1,2.1827996E-1,0E0,1.2912738E-1,1.7827865E-1,0E0,0E0,0E0,0E0],"parents":[2147483647,0,0,1,1,4,4,6,6,7,7,9,9,10,10],"right_children":[2,4,-1,-1,6,-1,8,10,-1,12,14,-1,-1,-1,-1],"split_conditions":[6.056866E1,4.334548E1,-1.4654046E-1,-8.919858E-2,4.8E1,-3.2633964E-2,1.64E2,1.46E0,-2.6934505E-2,5.5E0,6.5E1,7.730463E-3,1.2905297E-1,6.898626E-2,-4.6308E-2],"split_indices":[4,4,0,0,0,0,2,3,0,1,0,0,0,0,0],"split_type":[0,0,0,0,0,0,0,0,0,0,0,0,0,0,0],"sum_hessian":[4.849522E1,1.2615316E1,3.5879906E1,1.4376209E0,1.1177695E1,1.2299291E0,9.947766E0,8.471633E0,1.4761341E0,5.593817E0,2.8778152E0,1.0766487E0,4.5171685E0,1.2377111E0,1.640104E0],"tree_param":{"num_deleted":"0","num_feature":"5","num_nodes":"15","size_leaf_vector":"1"}},{"base_weights":[-3.88608E-1,-1.46209E-1,2.018416E-1,1.0837852E-1,4.3157607E-2,-3.5751373E-2,1.7186671E-1,7.5353906E-2,3.4388942E-3],"categories":[],"categories_nodes":[],"categories_segments":[],"categories_sizes":[],"default_left":[0,0,0,0,0,0,0,0,0],"id":47,"left_children":[1,-1,3,-1,5,-1,7,-1,-1],"loss_changes":[2.7577105E0,0E0,1.6761512E-1,0E0,1.2003973E-1,0E0,3.6142483E-2,0E0,0E0],"parents":[2147483647,0,0,2,2,4,4,6,6],"right_children":[2,-1,4,-1,6,-1,8,-1,-1],"split_conditions":[1.49E0,-1.46209E-1,4.334548E1,1.0837852E-1,5.8E0,-3.5751373E-2,1.28E1,7.5353906E-2,3.4388942E-3],"split_indices":[3,0,4,0,1,0,2,0,0],"split_type":[0,0,0,0,0,0,0,0,0],"sum_hessian":[4.46069E1,3.8364803E1,6.2420945E0,2.4769962E0,3.7650983E0,1.6978551E0,2.067243E0,1.0045924E0,1.0626508E0],"tree_param":{"num_deleted":"0","num_feature":"5","num_nodes":"9","size_leaf_vector":"1"}},{"base_weights":[4.1996723E-1,-1.6480872E-1,1.4815784E-1,-1.13181114E-1,5.3327978E-2,4.4721298E-2,-2.065977E-2],"categories":[],"categories_nodes":[],"categories_segments":[],"categories_sizes":[],"default_left":[0,0,0,0,0,0,0],"id":48,"left_children":[1,3,-1,-1,5,-1,-1],"loss_changes":[2.7160797E0,3.7188512E-1,0E0,0E0,6.432988E-2,0E0,0E0],"parents":[2147483647,0,0,1,1,4,4],"right_children":[2,4,-1,-1,6,-1,-1],"split_conditions":[6.056866E1,5.9584713E1,1.4815784E-1,-1.13181114E-1,6.9E1,4.4721298E-2,-2.065977E-2],"split_indices":[4,4,0,0,0,0,0],"split_type":[0,0,0,0,0,0,0],"sum_hessian":[5.9973503E1,6.59005E0,5.338345E1,2.9688876E0,3.6211627E0,1.9070052E0,1.7141576E0],"tree_param":{"num_deleted":"0","num_feature":"5","num_nodes":"7","size_leaf_vector":"1"}},{"base_weights":[-3.1674522E-1,8.026308E-2,-1.4504892E-1,-8.189771E-2,1.4156176E-1,1.8692718E-1,-3.043781E-2,-3.0902576E-2,2.3958789E-1,3.372101E-1,2.4444122E-2,4.967858E-3,1.2050737E-1,6.2409543E-2,-4.2262383E-2],"categories":[],"categories_nodes":[],"categories_segments":[],"categories_sizes":[],"default_left":[0,0,0,0,0,0,0,0,0,0,0,0,0,0,0],"id":49,"left_children":[1,3,-1,-1,5,7,-1,-1,9,11,13,-1,-1,-1,-1],"loss_changes":[2.6369483E0,3.085841E-1,0E0,0E0,1.4333771E-1,1.7519954E-1,0E0,0E0,1.7329934E-1,1.1466682E-1,1.4391212E-1,0E0,0E0,0E0,0E0],"parents":[2147483647,0,0,1,1,4,4,5,5,8,8,9,9,10,10],"right_children":[2,4,-1,-1,6,8,-1,-1,10,12,14,-1,-1,-1,-1],"split_conditions":[6.056866E1,4.334548E1,-1.4504892E-1,-8.189771E-2,1.64E2,4.8E1,-3.043781E-2,-3.0902576E-2,1.46E0,5.5E0,6.5E1,4.967858E-3,1.2050737E-1,6.2409543E-2,-4.2262383E-2],"split_indices":[4,4,0,0,2,0,0,0,3,1,0,0,0,0,0],"split_type":[0,0,0,0,0,0,0,0,0,0,0,0,0,0,0],"sum_hessian":[3.8245907E1,1.1465949E1,2.6779957E1,1.184776E0,1.0281174E1,8.858376E0,1.4227984E0,1.2146664E0,7.6437087E0,4.867633E0,2.7760758E0,1.0253922E0,3.8422408E0,1.1929395E0,1.5831363E0],"tree_param":{"num_deleted":"0","num_feature":"5","num_nodes":"15","size_leaf_vector":"1"}},{"base_weights":[-3.7122393E-1,-1.4547661E-1,1.6619435E-1,1.014683E-1,2.6966393E-2,-9.345851E-2,4.5596145E-2,-4.9257036E-2,6.1819856E-3],"categories":[],"categories_nodes":[],"categories_segments":[],"categories_sizes":[],"default_left":[0,0,0,0,0,0,0,0,0],"id":50,"left_children":[1,-1,3,-1,5,7,-1,-1,-1],"loss_changes":[2.2493649E0,0E0,1.571682E-1,0E0,8.833552E-2,2.8613957E-2,0E0,0E0,0E0],"parents":[2147483647,0,0,2,2,4,4,5,5],"right_children":[2,-1,4,-1,6,8,-1,-1,-1],"split_conditions":[1.46E0,-1.4547661E-1,4.334548E1,1.014683E-1,6.6E1,2.79E1,4.5596145E-2,-4.9257036E-2,6.1819856E-3],"split_indices":[3,0,4,0,0,2,0,0,0],"split_type":[0,0,0,0,0,0,0,0,0],"sum_hessian":[3.449349E1,2.8550854E1,5.942636E0,2.0188227E0,3.9238133E0,2.127234E0,1.7965792E0,1.0417838E0,1.0854503E0],"tree_param":{"num_deleted":"0","num_feature":"5","num_nodes":"9","size_leaf_vector":"1"}},{"base_weights":[4.06754E-1,-1.3702618E-1,1.470147E-1,-1.0779366E-1,6.408893E-2,-1.7532839E-2,4.5302905E-2],"categories":[],"categories_nodes":[],"categories_segments":[],"categories_sizes":[],"default_left":[0,0,0,0,0,0,0],"id":51,"left_children":[1,3,-1,-1,5,-1,-1],"loss_changes":[2.1939368E0,3.3679342E-1,0E0,0E0,5.7108484E-2,0E0,0E0],"parents":[2147483647,0,0,1,1,4,4],"right_children":[2,4,-1,-1,6,-1,-1],"split_conditions":[6.056866E1,5.9584713E1,1.470147E-1,-1.0779366E-1,6E0,-1.7532839E-2,4.5302905E-2],"split_indices":[4,4,0,0,1,0,0],"split_type":[0,0,0,0,0,0,0],"sum_hessian":[4.5955013E1,6.0185657E0,3.993645E1,2.4851785E0,3.533387E0,1.6022851E0,1.9311018E0],"tree_param":{"num_deleted":"0","num_feature":"5","num_nodes":"7","size_leaf_vector":"1"}},{"base_weights":[-2.9356545E-1,6.621057E-2,-1.431952E-1,1.3761605E-1,-1.7776403E-1,2.3467655E-1,-2.0100698E-2,9.5939427E-4,-8.087155E-2,7.557588E-2,1.04098685E-1,2.9864492E-2,-3.670264E-2,5.1357165E-2,-2.475882E-2],"categories":[],"categories_nodes":[],"categories_segments":[],"categories_sizes":[],"default_left":[0,0,0,0,0,0,0,0,0,0,0,0,0,0,0],"id":52,"left_children":[1,3,-1,5,7,9,11,-1,-1,13,-1,-1,-1,-1,-1],"loss_changes":[2.118939E0,2.2571993E-1,0E0,1.5015149E-1,5.1566362E-2,8.028212E-2,6.7722514E-2,0E0,0E0,7.073973E-2,0E0,0E0,0E0,0E0,0E0],"parents":[2147483647,0,0,1,1,3,3,4,4,5,5,6,6,9,9],"right_children":[2,4,-1,6,8,10,12,-1,-1,14,-1,-1,-1,-1,-1],"split_conditions":[6.056866E1,1.63E0,-1.431952E-1,5.9584713E1,5.5E1,4.650827E1,6E0,9.5939427E-4,-8.087155E-2,7.3E1,1.04098685E-1,2.9864492E-2,-3.670264E-2,5.1357165E-2,-2.475882E-2],"split_indices":[4,3,0,4,0,4,1,0,0,0,0,0,0,0,0],"split_type":[0,0,0,0,0,0,0,0,0,0,0,0,0,0,0],"sum_hessian":[3.057391E1,1.0552455E1,2.0021456E1,8.500504E0,2.0519514E0,4.960066E0,3.5404377E0,1.0154899E0,1.0364615E0,2.7448437E0,2.2152221E0,1.6434803E0,1.8969574E0,1.6588724E0,1.0859712E0],"tree_param":{"num_deleted":"0","num_feature":"5","num_nodes":"15","size_leaf_vector":"1"}},{"base_weights":[-3.5208833E-1,1.4690925E-1,-1.4370014E-1,-1.40828965E-2,2.7435213E-1,-3.9949045E-2,4.0794447E-2,2.0574559E-2,9.9089906E-2],"categories":[],"categories_nodes":[],"categories_segments":[],"categories_sizes":[],"default_left":[0,0,0,0,0,0,0,0,0],"id":53,"left_children":[1,3,-1,5,7,-1,-1,-1,-1],"loss_changes":[1.8384173E0,1.3571125E-1,0E0,8.584357E-2,1.9202113E-2,0E0,0E0,0E0,0E0],"parents":[2147483647,0,0,1,1,3,3,4,4],"right_children":[2,4,-1,6,8,-1,-1,-1,-1],"split_conditions":[4.650827E1,1.63E0,-1.4370014E-1,7.3E1,5.8E0,-3.9949045E-2,4.0794447E-2,2.0574559E-2,9.9089906E-2],"split_indices":[4,3,0,0,1,0,0,0,0],"split_type":[0,0,0,0,0,0,0,0,0],"sum_hessian":[2.6918526E1,5.426165E0,2.149236E1,2.7905285E0,2.6356368E0,1.618681E0,1.1718476E0,1.0392368E0,1.5963999E0],"tree_param":{"num_deleted":"0","num_feature":"5","num_nodes":"9","size_leaf_vector":"1"}},{"base_weights":[3.893906E-1,-1.2314625E-1,1.4565527E-1,-1.01941526E-1,5.2940063E-2,4.338219E-2,-1.9851089E-2],"categories":[],"categories_nodes":[],"categories_segments":[],"categories_sizes":[],"default_left":[0,0,0,0,0,0,0],"id":54,"left_children":[1,3,-1,-1,5,-1,-1],"loss_changes":[1.8581085E0,2.68342E-1,0E0,0E0,5.8541153E-2,0E0,0E0],"parents":[2147483647,0,0,1,1,4,4],"right_children":[2,4,-1,-1,6,-1,-1],"split_conditions":[6.056866E1,5.9584713E1,1.4565527E-1,-1.01941526E-1,6.9E1,4.338219E-2,-1.9851089E-2],"split_indices":[4,4,0,0,0,0,0],"split_type":[0,0,0,0,0,0,0],"sum_hessian":[3.5500305E1,5.562213E0,2.9938093E1,2.076947E0,3.4852657E0,1.8485566E0,1.6367092E0],"tree_param":{"num_deleted":"0","num_feature":"5","num_nodes":"7","size_leaf_vector":"1"}},{"base_weights":[-2.676734E-1,5.5544723E-2,-1.4087127E-1,1.1804623E-1,-4.7390282E-2,2.0564137E-1,-1.4821843E-2,8.57767E-2,2.180772E-3,-3.446982E-2,2.978645E-2],"categories":[],"categories_nodes":[],"categories_segments":[],"categories_sizes":[],"default_left":[0,0,0,0,0,0,0,0,0,0,0],"id":55,"left_children":[1,3,-1,5,-1,7,9,-1,-1,-1,-1],"loss_changes":[1.7116417E0,1.6310853E-1,0E0,1.07169785E-1,0E0,8.485775E-2,6.26527E-2,0E0,0E0,0E0,0E0],"parents":[2147483647,0,0,1,1,3,3,5,5,6,6],"right_children":[2,4,-1,6,-1,8,10,-1,-1,-1,-1],"split_conditions":[6.056866E1,1.63E0,-1.4087127E-1,5.9584713E1,-4.7390282E-2,1.53E0,6.9E1,8.57767E-2,2.180772E-3,-3.446982E-2,2.978645E-2],"split_indices":[4,3,0,4,0,3,0,0,0,0,0],"split_type":[0,0,0,0,0,0,0,0,0,0,0],"sum_hessian":[2.4829592E1,9.825235E0,1.5004356E1,7.9462495E0,1.8789855E0,4.4589276E0,3.4873219E0,2.860104E0,1.5988237E0,1.854211E0,1.6331109E0],"tree_param":{"num_deleted":"0","num_feature":"5","num_nodes":"11","size_leaf_vector":"1"}},{"base_weights":[-3.2771486E-1,-1.4031966E-1,1.4777333E-1,-1.6249834E-2,2.3163E-1,-1.1911384E-2,1.01447865E-1],"categories":[],"categories_nodes":[],"categories_segments":[],"categories_sizes":[],"default_left":[0,0,0,0,0,0,0],"id":56,"left_children":[1,-1,3,-1,5,-1,-1],"loss_changes":[1.5519612E0,0E0,1.1121388E-1,0E0,1.3790695E-1,0E0,0E0],"parents":[2147483647,0,0,2,2,4,4],"right_children":[2,-1,4,-1,6,-1,-1],"split_conditions":[1.49E0,-1.4031966E-1,6.1E1,-1.6249834E-2,5.6E0,-1.1911384E-2,1.01447865E-1],"split_indices":[3,0,0,0,1,0,0],"split_type":[0,0,0,0,0,0,0],"sum_hessian":[2.1272738E1,1.6446142E1,4.826595E0,1.5200794E0,3.3065152E0,1.10904E0,2.1974752E0],"tree_param":{"num_deleted":"0","num_feature":"5","num_nodes":"7","size_leaf_vector":"1"}},{"base_weights":[3.6822754E-1,-1.1129541E-1,1.4399797E-1,-9.6462764E-2,4.3611787E-2,-2.360015E-2,4.053385E-2],"categories":[],"categories_nodes":[],"categories_segments":[],"categories_sizes":[],"default_left":[0,0,0,0,0,0,0],"id":57,"left_children":[1,3,-1,-1,5,-1,-1],"loss_changes":[1.5956123E0,2.1760741E-1,0E0,0E0,6.0750604E-2,0E0,0E0],"parents":[2147483647,0,0,1,1,4,4],"right_children":[2,4,-1,-1,6,-1,-1],"split_conditions":[6.056866E1,5.9584713E1,1.4399797E-1,-9.6462764E-2,1.45E1,-2.360015E-2,4.053385E-2],"split_indices":[4,4,0,0,2,0,0],"split_type":[0,0,0,0,0,0,0],"sum_hessian":[2.7775341E1,5.2509036E0,2.2524439E1,1.7712165E0,3.479687E0,1.5493914E0,1.9302955E0],"tree_param":{"num_deleted":"0","num_feature":"5","num_nodes":"7","size_leaf_vector":"1"}},{"base_weights":[-2.390776E-1,-1.3804775E-1,5.7245135E-2,-4.5347153E-3,9.0182394E-2,7.209779E-2,-1.07720256E-1,2.4816889E-1,-6.942255E-2,-6.870369E-2,2.7329411E-2,8.913532E-2,1.8171035E-2],"categories":[],"categories_nodes":[],"categories_segments":[],"categories_sizes":[],"default_left":[0,0,0,0,0,0,0,0,0,0,0,0,0],"id":58,"left_children":[1,-1,3,5,-1,7,9,11,-1,-1,-1,-1,-1],"loss_changes":[1.4407804E0,0E0,1.5343904E-1,7.934476E-2,0E0,3.670228E-1,1.2356046E-1,2.010256E-2,0E0,0E0,0E0,0E0,0E0],"parents":[2147483647,0,0,2,2,3,3,5,5,6,6,7,7],"right_children":[2,-1,4,6,-1,8,10,12,-1,-1,-1,-1,-1],"split_conditions":[1.16E0,-1.3804775E-1,7.9E0,1.89E1,9.0182394E-2,6E0,5.9E0,1.56E0,-6.942255E-2,-6.870369E-2,2.7329411E-2,8.913532E-2,1.8171035E-2],"split_indices":[3,0,1,2,0,1,1,3,0,0,0,0,0],"split_type":[0,0,0,0,0,0,0,0,0,0,0,0,0],"sum_hessian":[2.0590698E1,1.1475853E1,9.114845E0,8.052111E0,1.0627345E0,4.793452E0,3.2586591E0,3.148981E0,1.6444705E0,1.9296067E0,1.3290523E0,2.034373E0,1.1146082E0],"tree_param":{"num_deleted":"0","num_feature":"5","num_nodes":"13","size_leaf_vector":"1"}},{"base_weights":[-3.0058864E-1,1.239468E-1,-1.3892789E-1,8.4352836E-2,1.7996794E-2,-2.3338709E-2,3.1703092E-2],"categories":[],"categories_nodes":[],"categories_segments":[],"categories_sizes":[],"default_left":[0,0,0,0,0,0,0],"id":59,"left_children":[1,3,-1,-1,5,-1,-1],"loss_changes":[1.3046039E0,9.144729E-2,0E0,0E0,4.626442E-2,0E0,0E0],"parents":[2147483647,0,0,1,1,4,4],"right_children":[2,4,-1,-1,6,-1,-1],"split_conditions":[4.650827E1,4.334548E1,-1.3892789E-1,8.4352836E-2,6.5E1,-2.3338709E-2,3.1703092E-2],"split_indices":[4,4,0,0,0,0,0],"split_type":[0,0,0,0,0,0,0],"sum_hessian":[1.7078358E1,4.793311E0,1.2285047E1,1.2638731E0,3.5294383E0,1.7405658E0,1.7888724E0],"tree_param":{"num_deleted":"0","num_feature":"5","num_nodes":"7","size_leaf_vector":"1"}},{"base_weights":[3.4521353E-1,-1.1091621E-1,1.4197876E-1,-9.1906674E-2,3.221565E-2,3.6119133E-2,-2.261552E-2],"categories":[],"categories_nodes":[],"categories_segments":[],"categories_sizes":[],"default_left":[0,0,0,0,0,0,0],"id":60,"left_children":[1,3,-1,-1,5,-1,-1],"loss_changes":[1.3900161E0,1.7294747E-1,0E0,0E0,4.9591884E-2,0E0,0E0],"parents":[2147483647,0,0,1,1,4,4],"right_children":[2,4,-1,-1,6,-1,-1],"split_conditions":[6.056866E1,5.9584713E1,1.4197876E-1,-9.1906674E-2,6.9E1,3.6119133E-2,-2.261552E-2],"split_indices":[4,4,0,0,0,0,0],"split_type":[0,0,0,0,0,0,0],"sum_hessian":[2.1900074E1,4.829712E0,1.7070362E1,1.5596776E0,3.2700343E0,1.731831E0,1.5382032E0],"tree_param":{"num_deleted":"0","num_feature":"5","num_nodes":"7","size_leaf_vector":"1"}},{"base_weights":[-2.1020912E-1,-1.3409247E-1,5.365848E-2,-8.175416E-3,8.679002E-2,6.452083E-2,-1.0494256E-1,2.3329909E-1,-6.572668E-2,-6.5210454E-2,2.3864727E-2,8.429963E-2,1.681142E-2],"categories":[],"categories_nodes":[],"categories_segments":[],"categories_sizes":[],"default_left":[0,0,0,0,0,0,0,0,0,0,0,0,0],"id":61,"left_children":[1,-1,3,5,-1,7,9,11,-1,-1,-1,-1,-1],"loss_changes":[1.1673746E0,0E0,1.4148924E-1,6.681874E-2,0E0,3.1407276E-1,1.0113975E-1,1.746811E-2,0E0,0E0,0E0,0E0,0E0],"parents":[2147483647,0,0,2,2,3,3,5,5,6,6,7,7],"right_children":[2,-1,4,6,-1,8,10,12,-1,-1,-1,-1,-1],"split_conditions":[1.16E0,-1.3409247E-1,7.9E0,1.89E1,8.679002E-2,6E0,5.9E0,1.56E0,-6.572668E-2,-6.5210454E-2,2.3864727E-2,8.429963E-2,1.681142E-2],"split_indices":[3,0,1,2,0,1,1,3,0,0,0,0,0],"split_type":[0,0,0,0,0,0,0,0,0,0,0,0,0],"sum_hessian":[1.7301624E1,8.753374E0,8.548251E0,7.536048E0,1.0122029E0,4.493526E0,3.042522E0,2.9282794E0,1.5652466E0,1.7797664E0,1.2627555E0,1.8462427E0,1.0820367E0],"tree_param":{"num_deleted":"0","num_feature":"5","num_nodes":"13","size_leaf_vector":"1"}},{"base_weights":[-2.7254304E-1,-1.357873E-1,1.1511486E-1,-1.9628301E-2,1.944611E-1,-1.1988629E-2,8.5505605E-2],"categories":[],"categories_nodes":[],"categories_segments":[],"categories_sizes":[],"default_left":[0,0,0,0,0,0,0],"id":62,"left_children":[1,-1,3,-1,5,-1,-1],"loss_changes":[1.0916448E0,0E0,9.180671E-2,0E0,9.814809E-2,0E0,0E0],"parents":[2147483647,0,0,2,2,4,4],"right_children":[2,-1,4,-1,6,-1,-1],"split_conditions":[1.46E0,-1.357873E-1,6.1E1,-1.9628301E-2,5.6E0,-1.1988629E-2,8.5505605E-2],"split_indices":[3,0,0,0,1,0,0],"split_type":[0,0,0,0,0,0,0],"sum_hessian":[1.3891023E1,9.370499E0,4.5205245E0,1.4337106E0,3.0868142E0,1.0158443E0,2.0709698E0],"tree_param":{"num_deleted":"0","num_feature":"5","num_nodes":"7","size_leaf_vector":"1"}},{"base_weights":[3.1874847E-1,-1.10232174E-1,1.3950746E-1,-8.774382E-2,2.204583E-2,3.279845E-2,-2.4141734E-2],"categories":[],"categories_nodes":[],"categories_segments":[],"categories_sizes":[],"default_left":[0,0,0,0,0,0,0],"id":63,"left_children":[1,3,-1,-1,5,-1,-1],"loss_changes":[1.2145056E0,1.3957284E-1,0E0,0E0,4.575023E-2,0E0,0E0],"parents":[2147483647,0,0,1,1,4,4],"right_children":[2,4,-1,-1,6,-1,-1],"split_conditions":[6.056866E1,5.9584713E1,1.3950746E-1,-8.774382E-2,6.9E1,3.279845E-2,-2.4141734E-2],"split_indices":[4,4,0,0,0,0,0],"split_type":[0,0,0,0,0,0,0],"sum_hessian":[1.7537844E1,4.522181E0,1.3015662E1,1.3925232E0,3.1296577E0,1.6545639E0,1.475094E0],"tree_param":{"num_deleted":"0","num_feature":"5","num_nodes":"7","size_leaf_vector":"1"}},{"base_weights":[-1.8037607E-1,-1.2947254E-1,5.4162055E-2,1.13217175E-1,-3.99433E-2,-5.879068E-3,7.875558E-2,4.328009E-2,-7.7496655E-2,2.686028E-2,-5.6434486E-2],"categories":[],"categories_nodes":[],"categories_segments":[],"categories_sizes":[],"default_left":[0,0,0,0,0,0,0,0,0,0,0],"id":64,"left_children":[1,-1,3,5,-1,7,-1,-1,9,-1,-1],"loss_changes":[9.5515317E-1,0E0,1.1537291E-1,1.3373515E-1,0E0,6.616716E-2,0E0,0E0,9.2832185E-2,0E0,0E0],"parents":[2147483647,0,0,2,2,3,3,5,5,8,8],"right_children":[2,-1,4,6,-1,8,-1,-1,10,-1,-1],"split_conditions":[1.16E0,-1.2947254E-1,1.63E0,6.2E0,-3.99433E-2,5.4E0,7.875558E-2,4.328009E-2,1.38E0,2.686028E-2,-5.6434486E-2],"split_indices":[3,0,3,1,0,1,0,0,3,0,0],"split_type":[0,0,0,0,0,0,0,0,0,0,0],"sum_hessian":[1.48154335E1,6.7479844E0,8.067449E0,6.434341E0,1.6331079E0,4.113592E0,2.3207486E0,1.0008684E0,3.112724E0,1.3160788E0,1.7966452E0],"tree_param":{"num_deleted":"0","num_feature":"5","num_nodes":"11","size_leaf_vector":"1"}},{"base_weights":[-2.4492265E-1,1.0637686E-1,-1.3189614E-1,7.6486155E-2,9.92937E-3,-2.2631753E-2,2.8197998E-2],"categories":[],"categories_nodes":[],"categories_segments":[],"categories_sizes":[],"default_left":[0,0,0,0,0,0,0],"id":65,"left_children":[1,3,-1,-1,5,-1,-1],"loss_changes":[9.00332E-1,7.277177E-2,0E0,0E0,3.7425656E-2,0E0,0E0],"parents":[2147483647,0,0,1,1,4,4],"right_children":[2,4,-1,-1,6,-1,-1],"split_conditions":[4.650827E1,4.334548E1,-1.3189614E-1,7.6486155E-2,6.5E1,-2.2631753E-2,2.8197998E-2],"split_indices":[4,4,0,0,0,0,0],"split_type":[0,0,0,0,0,0,0],"sum_hessian":[1.1477357E1,4.2549863E0,7.22237E0,1.0279642E0,3.2270222E0,1.6519914E0,1.5750309E0],"tree_param":{"num_deleted":"0","num_feature":"5","num_nodes":"7","size_leaf_vector":"1"}},{"base_weights":[2.907957E-1,-1.0398809E-1,1.3651188E-1,-8.3061166E-2,1.585892E-2,-2.5896823E-2,3.149974E-2],"categories":[],"categories_nodes":[],"categories_segments":[],"categories_sizes":[],"default_left":[0,0,0,0,0,0,0],"id":66,"left_children":[1,3,-1,-1,5,-1,-1],"loss_changes":[1.0395043E0,1.1440524E-1,0E0,0E0,4.6241745E-2,0E0,0E0],"parents":[2147483647,0,0,1,1,4,4],"right_children":[2,4,-1,-1,6,-1,-1],"split_conditions":[6.056866E1,5.9584713E1,1.3651188E-1,-8.3061166E-2,1.45E1,-2.5896823E-2,3.149974E-2],"split_indices":[4,4,0,0,2,0,0],"split_type":[0,0,0,0,0,0,0],"sum_hessian":[1.430187E1,4.3097157E0,9.992155E0,1.2280384E0,3.0816772E0,1.4505336E0,1.6311436E0],"tree_param":{"num_deleted":"0","num_feature":"5","num_nodes":"7","size_leaf_vector":"1"}},{"base_weights":[-1.5397735E-1,-1.2403018E-1,5.065945E-2,-3.954708E-2,1.6526689E-1,2.8536724E-2,-4.7817122E-2,8.9730956E-2,-2.7565416E-2,1.2264231E-1,-3.608759E-2,6.326617E-2,-6.673332E-3],"categories":[],"categories_nodes":[],"categories_segments":[],"categories_sizes":[],"default_left":[0,0,0,0,0,0,0,0,0,0,0,0,0],"id":67,"left_children":[1,-1,3,5,7,9,-1,-1,-1,11,-1,-1,-1],"loss_changes":[7.6081884E-1,0E0,9.628716E-2,5.0769415E-2,1.6572103E-1,7.7226736E-2,0E0,0E0,0E0,4.5961138E-2,0E0,0E0,0E0],"parents":[2147483647,0,0,2,2,3,3,4,4,5,5,9,9],"right_children":[2,-1,4,6,8,10,-1,-1,-1,12,-1,-1,-1],"split_conditions":[1.16E0,-1.2403018E-1,6.9E1,6.4E1,1.48E0,6E0,-4.7817122E-2,8.9730956E-2,-2.7565416E-2,1.48E1,-3.608759E-2,6.326617E-2,-6.673332E-3],"split_indices":[3,0,0,0,3,1,0,0,0,2,0,0,0],"split_type":[0,0,0,0,0,0,0,0,0,0,0,0,0],"sum_hessian":[1.2935087E1,5.2536793E0,7.681408E0,4.664754E0,3.0166538E0,3.46063E0,1.2041242E0,1.8767482E0,1.1399057E0,2.2278757E0,1.2327541E0,1.101477E0,1.1263988E0],"tree_param":{"num_deleted":"0","num_feature":"5","num_nodes":"13","size_leaf_vector":"1"}},{"base_weights":[-2.1713309E-1,9.733766E-2,-1.2732595E-1,-1.0031528E-2,1.7895465E-1,-1.3003664E-2,8.991711E-2],"categories":[],"categories_nodes":[],"categories_segments":[],"categories_sizes":[],"default_left":[0,0,0,0,0,0,0],"id":68,"left_children":[1,3,-1,-1,5,-1,-1],"loss_changes":[7.330907E-1,5.96678E-2,0E0,0E0,1.0035991E-1,0E0,0E0],"parents":[2147483647,0,0,1,1,4,4],"right_children":[2,4,-1,-1,6,-1,-1],"split_conditions":[4.650827E1,1.84E1,-1.2732595E-1,-1.0031528E-2,1.63E0,-1.3003664E-2,8.991711E-2],"split_indices":[4,2,0,0,3,0,0],"split_type":[0,0,0,0,0,0,0],"sum_hessian":[9.612443E0,4.0296135E0,5.582829E0,1.7753096E0,2.2543037E0,1.0192508E0,1.2350531E0],"tree_param":{"num_deleted":"0","num_feature":"5","num_nodes":"7","size_leaf_vector":"1"}},{"base_weights":[2.6556647E-1,-9.6111156E-2,1.329482E-1,-7.8340024E-2,1.5558725E-2,2.9738313E-2,-2.5205035E-2],"categories":[],"categories_nodes":[],"categories_segments":[],"categories_sizes":[],"default_left":[0,0,0,0,0,0,0],"id":69,"left_children":[1,3,-1,-1,5,-1,-1],"loss_changes":[8.6213034E-1,9.663817E-2,0E0,0E0,4.1114036E-2,0E0,0E0],"parents":[2147483647,0,0,1,1,4,4],"right_children":[2,4,-1,-1,6,-1,-1],"split_conditions":[6.056866E1,5.9584713E1,1.329482E-1,-7.8340024E-2,6.9E1,2.9738313E-2,-2.5205035E-2],"split_indices":[4,4,0,0,0,0,0],"split_type":[0,0,0,0,0,0,0],"sum_hessian":[1.1759052E1,4.0236154E0,7.7354364E0,1.0837067E0,2.9399087E0,1.6008711E0,1.3390378E0],"tree_param":{"num_deleted":"0","num_feature":"5","num_nodes":"7","size_leaf_vector":"1"}},{"base_weights":[-1.3107643E-1,4.2280942E-2,-1.1982141E-1,1.3500129E-1,-1.06941104E-1,2.21079E-1,-6.1701527E-3,-6.0293604E-2,5.8665434E-3,8.752256E-2,1.2628054E-2],"categories":[],"categories_nodes":[],"categories_segments":[],"categories_sizes":[],"default_left":[0,0,0,0,0,0,0,0,0,0,0],"id":70,"left_children":[1,3,-1,5,7,9,-1,-1,-1,-1,-1],"loss_changes":[5.935141E-1,1.3114376E-1,0E0,8.013189E-2,4.9020592E-2,3.475535E-2,0E0,0E0,0E0,0E0,0E0],"parents":[2147483647,0,0,1,1,3,3,4,4,5,5],"right_children":[2,4,-1,6,8,10,-1,-1,-1,-1,-1],"split_conditions":[6.056866E1,2.75E1,-1.1982141E-1,6E0,5.9E0,6.7E1,-6.1701527E-3,-6.0293604E-2,5.8665434E-3,8.752256E-2,1.2628054E-2],"split_indices":[4,2,0,1,1,0,0,0,0,0,0],"split_type":[0,0,0,0,0,0,0,0,0,0,0],"sum_hessian":[1.1396132E1,7.4350433E0,3.9610894E0,4.644466E0,2.7905774E0,2.7189417E0,1.9255244E0,1.2629137E0,1.5276638E0,1.4976857E0,1.2212559E0],"tree_param":{"num_deleted":"0","num_feature":"5","num_nodes":"11","size_leaf_vector":"1"}},{"base_weights":[-1.9161603E-1,8.446183E-2,-1.2202627E-1,-2.048606E-2,1.5424716E-1,-6.197259E-3,6.987335E-2],"categories":[],"categories_nodes":[],"categories_segments":[],"categories_sizes":[],"default_left":[0,0,0,0,0,0,0],"id":71,"left_children":[1,3,-1,-1,5,-1,-1],"loss_changes":[5.810105E-1,6.2328413E-2,0E0,0E0,5.492226E-2,0E0,0E0],"parents":[2147483647,0,0,1,1,4,4],"right_children":[2,4,-1,-1,6,-1,-1],"split_conditions":[4.650827E1,6.1E1,-1.2202627E-1,-2.048606E-2,1.54E0,-6.197259E-3,6.987335E-2],"split_indices":[4,0,0,0,3,0,0],"split_type":[0,0,0,0,0,0,0],"sum_hessian":[8.203742E0,3.8590243E0,4.344718E0,1.2169005E0,2.6421237E0,1.0484198E0,1.593704E0],"tree_param":{"num_deleted":"0","num_feature":"5","num_nodes":"7","size_leaf_vector":"1"}},{"base_weights":[2.3732255E-1,1.2740514E-1,-9.384071E-2,6.0964674E-2,-8.10631E-2,3.480515E-2,-6.0829553E-3],"categories":[],"categories_nodes":[],"categories_segments":[],"categories_sizes":[],"default_left":[0,0,0,0,0,0,0],"id":72,"left_children":[1,-1,3,5,-1,-1,-1],"loss_changes":[7.150572E-1,0E0,1.461929E-1,1.7318206E-2,0E0,0E0,0E0],"parents":[2147483647,0,0,2,2,3,3],"right_children":[2,-1,4,6,-1,-1,-1],"split_conditions":[1.16E0,1.2740514E-1,6.9E1,1.35E0,-8.10631E-2,3.480515E-2,-6.0829553E-3],"split_indices":[3,0,0,3,0,0,0],"split_type":[0,0,0,0,0,0,0],"sum_hessian":[9.882119E0,6.131001E0,3.751118E0,2.346156E0,1.4049621E0,1.143329E0,1.2028269E0],"tree_param":{"num_deleted":"0","num_feature":"5","num_nodes":"7","size_leaf_vector":"1"}},{"base_weights":[-1.0923739E-1,-1.11706376E-1,4.693481E-2,9.741308E-2,-3.3457696E-2,-1.4678291E-2,7.0143335E-2,5.486363E-2,-3.8349696E-2,6.695259E-2,-3.2579146E-2],"categories":[],"categories_nodes":[],"categories_segments":[],"categories_sizes":[],"default_left":[0,0,0,0,0,0,0,0,0,0,0],"id":73,"left_children":[1,-1,3,5,-1,7,-1,9,-1,-1,-1],"loss_changes":[4.8001832E-1,0E0,7.446885E-2,1.03796154E-1,0E0,4.2771544E-2,0E0,1.2091991E-1,0E0,0E0,0E0],"parents":[2147483647,0,0,2,2,3,3,5,5,7,7],"right_children":[2,-1,4,6,-1,8,-1,10,-1,-1,-1],"split_conditions":[1.16E0,-1.11706376E-1,1.63E0,6.2E0,-3.3457696E-2,1.89E1,7.0143335E-2,5.8E0,-3.8349696E-2,6.695259E-2,-3.2579146E-2],"split_indices":[3,0,3,1,0,2,0,1,0,0,0],"split_type":[0,0,0,0,0,0,0,0,0,0,0],"sum_hessian":[1.0256365E1,3.3045833E0,6.9517817E0,5.564454E0,1.3873279E0,3.5442164E0,2.0202374E0,2.5141923E0,1.0300242E0,1.0587295E0,1.4554628E0],"tree_param":{"num_deleted":"0","num_feature":"5","num_nodes":"11","size_leaf_vector":"1"}},{"base_weights":[-1.6636518E-1,-1.1634574E-1,7.8054726E-2,-1.568115E-2,5.351933E-2],"categories":[],"categories_nodes":[],"categories_segments":[],"categories_sizes":[],"default_left":[0,0,0,0,0],"id":74,"left_children":[1,-1,3,-1,-1],"loss_changes":[4.7048914E-1,0E0,7.076784E-2,0E0,0E0],"parents":[2147483647,0,0,2,2],"right_children":[2,-1,4,-1,-1],"split_conditions":[1.46E0,-1.1634574E-1,6.5E1,-1.568115E-2,5.351933E-2],"split_indices":[3,0,0,0,0],"split_type":[0,0,0,0,0],"sum_hessian":[7.132945E0,3.4344802E0,3.6984649E0,1.8172752E0,1.8811896E0],"tree_param":{"num_deleted":"0","num_feature":"5","num_nodes":"5","size_leaf_vector":"1"}},{"base_weights":[2.0899792E-1,-8.727282E-2,1.2412848E-1,-4.788772E-2,4.123516E-3],"categories":[],"categories_nodes":[],"categories_segments":[],"categories_sizes":[],"default_left":[0,0,0,0,0],"id":75,"left_children":[1,3,-1,-1,-1],"loss_changes":[6.114546E-1,3.655853E-2,0E0,0E0,0E0],"parents":[2147483647,0,0,1,1],"right_children":[2,4,-1,-1,-1],"split_conditions":[6.056866E1,6E0,1.2412848E-1,-4.788772E-2,4.123516E-3],"split_indices":[4,1,0,0,0],"split_type":[0,0,0,0,0],"sum_hessian":[8.483886E0,3.701707E0,4.782179E0,1.8188227E0,1.882884E0],"tree_param":{"num_deleted":"0","num_feature":"5","num_nodes":"5","size_leaf_vector":"1"}},{"base_weights":[-9.08313E-2,3.8106337E-2,-1.0690251E-1,1.2331195E-1,-1.0278879E-1,2.1826251E-1,-1.1842424E-2,-5.661351E-2,5.7069026E-3,8.353792E-2,1.4295959E-2],"categories":[],"categories_nodes":[],"categories_segments":[],"categories_sizes":[],"default_left":[0,0,0,0,0,0,0,0,0,0,0],"id":76,"left_children":[1,3,-1,5,7,9,-1,-1,-1,-1,-1],"loss_changes":[3.6769122E-1,1.071068E-1,0E0,9.140692E-2,4.0323563E-2,2.3048118E-2,0E0,0E0,0E0,0E0,0E0],"parents":[2147483647,0,0,1,1,3,3,4,4,5,5],"right_children":[2,4,-1,6,8,10,-1,-1,-1,-1,-1],"split_conditions":[6.056866E1,2.75E1,-1.0690251E-1,6E0,5.9E0,6.7E1,-1.1842424E-2,-5.661351E-2,5.7069026E-3,8.353792E-2,1.4295959E-2],"split_indices":[4,2,0,1,1,0,0,0,0,0,0],"split_type":[0,0,0,0,0,0,0,0,0,0,0],"sum_hessian":[9.343794E0,6.8659954E0,2.4777982E0,4.3563256E0,2.5096698E0,2.5362108E0,1.8201147E0,1.1495792E0,1.3600906E0,1.4074593E0,1.1287515E0],"tree_param":{"num_deleted":"0","num_feature":"5","num_nodes":"11","size_leaf_vector":"1"}},{"base_weights":[-1.4278094E-1,7.3643E-2,-1.101063E-1,-1.3389657E-2,4.6892066E-2],"categories":[],"categories_nodes":[],"categories_segments":[],"categories_sizes":[],"default_left":[0,0,0,0,0],"id":77,"left_children":[1,3,-1,-1,-1],"loss_changes":[3.8144416E-1,5.145316E-2,0E0,0E0,0E0],"parents":[2147483647,0,0,1,1],"right_children":[2,4,-1,-1,-1],"split_conditions":[4.650827E1,1.84E1,-1.101063E-1,-1.3389657E-2,4.6892066E-2],"split_indices":[4,2,0,0,0],"split_type":[0,0,0,0,0],"sum_hessian":[6.302884E0,3.5490897E0,2.7537944E0,1.6493219E0,1.8997678E0],"tree_param":{"num_deleted":"0","num_feature":"5","num_nodes":"5","size_leaf_vector":"1"}},{"base_weights":[1.8389538E-1,-7.5805664E-2,1.18742935E-1,8.205483E-3,-4.811843E-2],"categories":[],"categories_nodes":[],"categories_segments":[],"categories_sizes":[],"default_left":[0,0,0,0,0],"id":78,"left_children":[1,3,-1,-1,-1],"loss_changes":[4.927381E-1,4.467775E-2,0E0,0E0,0E0],"parents":[2147483647,0,0,1,1],"right_children":[2,4,-1,-1,-1],"split_conditions":[6.056866E1,6.9E1,1.18742935E-1,8.205483E-3,-4.811843E-2],"split_indices":[4,0,0,0,0],"split_type":[0,0,0,0,0],"sum_hessian":[7.4080763E0,3.6173263E0,3.7907503E0,1.9346517E0,1.6826745E0],"tree_param":{"num_deleted":"0","num_feature":"5","num_nodes":"5","size_leaf_vector":"1"}},{"base_weights":[-7.636713E-2,-9.651814E-2,3.8177196E-2,-4.33058E-2,1.4226685E-1,-3.52547E-2,1.8657159E-2,7.685475E-2,-2.1431398E-2],"categories":[],"categories_nodes":[],"categories_segments":[],"categories_sizes":[],"default_left":[0,0,0,0,0,0,0,0,0],"id":79,"left_children":[1,-1,3,5,7,-1,-1,-1,-1],"loss_changes":[2.8345668E-1,0E0,6.953356E-2,4.6121255E-2,1.038511E-1,0E0,0E0,0E0,0E0],"parents":[2147483647,0,0,2,2,3,3,4,4],"right_children":[2,-1,4,6,8,-1,-1,-1,-1],"split_conditions":[1.16E0,-9.651814E-2,6.9E1,1.59E0,1.48E0,-3.52547E-2,1.8657159E-2,7.685475E-2,-2.1431398E-2],"split_indices":[3,0,0,3,3,0,0,0,0],"split_type":[0,0,0,0,0,0,0,0,0],"sum_hessian":[8.648745E0,2.1769173E0,6.471827E0,3.9576638E0,2.5141635E0,2.256459E0,1.7012047E0,1.5103184E0,1.003845E0],"tree_param":{"num_deleted":"0","num_feature":"5","num_nodes":"9","size_leaf_vector":"1"}},{"base_weights":[-1.213323E-1,-1.0055741E-1,7.775486E-2,-2.1009602E-2,5.2933473E-2],"categories":[],"categories_nodes":[],"categories_segments":[],"categories_sizes":[],"default_left":[0,0,0,0,0],"id":80,"left_children":[1,-1,3,-1,-1],"loss_changes":[3.1010818E-1,0E0,7.458746E-2,0E0,0E0],"parents":[2147483647,0,0,2,2],"right_children":[2,-1,4,-1,-1],"split_conditions":[1.49E0,-1.0055741E-1,5.8E0,-2.1009602E-2,5.2933473E-2],"split_indices":[3,0,1,0,0],"split_type":[0,0,0,0,0],"sum_hessian":[5.6714E0,2.4046688E0,3.266731E0,1.424279E0,1.8424522E0],"tree_param":{"num_deleted":"0","num_feature":"5","num_nodes":"5","size_leaf_vector":"1"}},{"base_weights":[1.5887673E-1,-7.1650736E-2,1.1311545E-1,-4.1481044E-2,5.730857E-3],"categories":[],"categories_nodes":[],"categories_segments":[],"categories_sizes":[],"default_left":[0,0,0,0,0],"id":81,"left_children":[1,3,-1,-1,-1],"loss_changes":[4.0905482E-1,3.0051993E-2,0E0,0E0,0E0],"parents":[2147483647,0,0,1,1],"right_children":[2,4,-1,-1,-1],"split_conditions":[6.056866E1,6E0,1.1311545E-1,-4.1481044E-2,5.730857E-3],"split_indices":[4,1,0,0,0],"split_type":[0,0,0,0,0],"sum_hessian":[6.595919E0,3.533718E0,3.062201E0,1.7358826E0,1.7978355E0],"tree_param":{"num_deleted":"0","num_feature":"5","num_nodes":"5","size_leaf_vector":"1"}},{"base_weights":[-6.36736E-2,-8.934738E-2,3.5739567E-2,8.239394E-2,-3.125711E-2,-2.136005E-2,6.247461E-2,5.0862733E-2,-3.7935615E-2,-1.0194071E-2,3.1607304E-2],"categories":[],"categories_nodes":[],"categories_segments":[],"categories_sizes":[],"default_left":[0,0,0,0,0,0,0,0,0,0,0],"id":82,"left_children":[1,-1,3,5,-1,7,-1,9,-1,-1,-1],"loss_changes":[2.2276923E-1,0E0,5.61746E-2,8.312738E-2,0E0,3.838311E-2,0E0,1.8413011E-2,0E0,0E0,0E0],"parents":[2147483647,0,0,2,2,3,3,5,5,7,7],"right_children":[2,-1,4,6,-1,8,-1,10,-1,-1,-1],"split_conditions":[1.16E0,-8.934738E-2,1.63E0,6.2E0,-3.125711E-2,1.48E1,6.247461E-2,5.6E1,-3.7935615E-2,-1.0194071E-2,3.1607304E-2],"split_indices":[3,0,3,1,0,2,0,0,0,0,0],"split_type":[0,0,0,0,0,0,0,0,0,0,0],"sum_hessian":[8.112806E0,1.8230628E0,6.2897434E0,5.025393E0,1.2643508E0,3.2096527E0,1.8157402E0,2.2081525E0,1.0015002E0,1.0108366E0,1.1973159E0],"tree_param":{"num_deleted":"0","num_feature":"5","num_nodes":"11","size_leaf_vector":"1"}},{"base_weights":[-1.0118171E-1,6.667444E-2,-9.71222E-2,-2.055151E-2,1.338343E-1,-2.9557738E-3,6.179783E-2],"categories":[],"categories_nodes":[],"categories_segments":[],"categories_sizes":[],"default_left":[0,0,0,0,0,0,0],"id":83,"left_children":[1,3,-1,-1,5,-1,-1],"loss_changes":[2.5298378E-1,4.8753113E-2,0E0,0E0,3.574235E-2,0E0,0E0],"parents":[2147483647,0,0,1,1,4,4],"right_children":[2,4,-1,-1,6,-1,-1],"split_conditions":[4.650827E1,6.1E1,-9.71222E-2,-2.055151E-2,1.07E1,-2.9557738E-3,6.179783E-2],"split_indices":[4,0,0,0,2,0,0],"split_type":[0,0,0,0,0,0,0],"sum_hessian":[5.1941023E0,3.3602142E0,1.8338878E0,1.108664E0,2.2515502E0,1.0413672E0,1.210183E0],"tree_param":{"num_deleted":"0","num_feature":"5","num_nodes":"7","size_leaf_vector":"1"}},{"base_weights":[1.3810927E-1,-6.5698855E-2,1.07243225E-1,6.685407E-3,-4.2152412E-2],"categories":[],"categories_nodes":[],"categories_segments":[],"categories_sizes":[],"default_left":[0,0,0,0,0],"id":84,"left_children":[1,3,-1,-1,-1],"loss_changes":[3.345002E-1,3.2426555E-2,0E0,0E0,0E0],"parents":[2147483647,0,0,1,1],"right_children":[2,4,-1,-1,-1],"split_conditions":[6.056866E1,6.9E1,1.07243225E-1,6.685407E-3,-4.2152412E-2],"split_indices":[4,0,0,0,0],"split_type":[0,0,0,0,0],"sum_hessian":[5.9564137E0,3.4508474E0,2.5055664E0,1.9084365E0,1.542411E0],"tree_param":{"num_deleted":"0","num_feature":"5","num_nodes":"5","size_leaf_vector":"1"}},{"base_weights":[-5.5072032E-2,-8.2051314E-2,3.0705877E-2,-3.7090357E-2,1.20432675E-1,-3.2459985E-2,1.8769488E-2,6.789708E-2,-1.4329486E-2],"categories":[],"categories_nodes":[],"categories_segments":[],"categories_sizes":[],"default_left":[0,0,0,0,0,0,0,0,0],"id":85,"left_children":[1,-1,3,5,7,-1,-1,-1,-1],"loss_changes":[1.7063119E-1,0E0,4.775568E-2,4.091203E-2,6.955313E-2,0E0,0E0,0E0,0E0],"parents":[2147483647,0,0,2,2,3,3,4,4],"right_children":[2,-1,4,6,8,-1,-1,-1,-1],"split_conditions":[1.16E0,-8.2051314E-2,6.9E1,1.59E0,1.46E0,-3.2459985E-2,1.8769488E-2,6.789708E-2,-1.4329486E-2],"split_indices":[3,0,0,3,3,0,0,0,0],"split_type":[0,0,0,0,0,0,0,0,0],"sum_hessian":[7.658582E0,1.5423895E0,6.1161923E0,3.8179991E0,2.2981932E0,2.178078E0,1.6399212E0,1.1982431E0,1.0999502E0],"tree_param":{"num_deleted":"0","num_feature":"5","num_nodes":"9","size_leaf_vector":"1"}},{"base_weights":[-8.36229E-2,6.504006E-2,-9.055217E-2,-1.947821E-2,1.301817E-1,-1.3266916E-4,5.8213856E-2],"categories":[],"categories_nodes":[],"categories_segments":[],"categories_sizes":[],"default_left":[0,0,0,0,0,0,0],"id":86,"left_children":[1,3,-1,-1,5,-1,-1],"loss_changes":[2.0728672E-1,4.454676E-2,0E0,0E0,2.6553042E-2,0E0,0E0],"parents":[2147483647,0,0,1,1,4,4],"right_children":[2,4,-1,-1,6,-1,-1],"split_conditions":[4.650827E1,6.1E1,-9.055217E-2,-1.947821E-2,1.07E1,-1.3266916E-4,5.8213856E-2],"split_indices":[4,0,0,0,2,0,0],"split_type":[0,0,0,0,0,0,0],"sum_hessian":[4.784521E0,3.2633085E0,1.5212126E0,1.0906289E0,2.1726797E0,1.0395441E0,1.1331354E0],"tree_param":{"num_deleted":"0","num_feature":"5","num_nodes":"7","size_leaf_vector":"1"}},{"base_weights":[1.1813246E-1,9.767932E-2,-7.2575E-2,1.0868903E-2,-5.8793973E-2],"categories":[],"categories_nodes":[],"categories_segments":[],"categories_sizes":[],"default_left":[0,0,0,0,0],"id":87,"left_children":[1,-1,3,-1,-1],"loss_changes":[2.7912235E-1,0E0,6.325706E-2,0E0,0E0],"parents":[2147483647,0,0,2,2],"right_children":[2,-1,4,-1,-1],"split_conditions":[1.16E0,9.767932E-2,6.9E1,1.0868903E-2,-5.8793973E-2],"split_indices":[3,0,0,0,0],"split_type":[0,0,0,0,0],"sum_hessian":[5.4575005E0,2.275133E0,3.1823673E0,2.0666459E0,1.1157217E0],"tree_param":{"num_deleted":"0","num_feature":"5","num_nodes":"5","size_leaf_vector":"1"}},{"base_weights":[-4.6007603E-2,-7.550559E-2,2.9351776E-2,7.2994724E-2,-2.9455582E-2,-2.0185648E-2,5.5616237E-2,2.0329908E-2,-2.4657186E-2],"categories":[],"categories_nodes":[],"categories_segments":[],"categories_sizes":[],"default_left":[0,0,0,0,0,0,0,0,0],"id":88,"left_children":[1,-1,3,5,-1,7,-1,-1,-1],"loss_changes":[1.3623674E-1,0E0,4.6015263E-2,6.4207815E-2,0E0,2.7702069E-2,0E0,0E0,0E0],"parents":[2147483647,0,0,2,2,3,3,5,5],"right_children":[2,-1,4,6,-1,8,-1,-1,-1],"split_conditions":[1.16E0,-7.550559E-2,1.63E0,6.2E0,-2.9455582E-2,5.5E0,5.5616237E-2,2.0329908E-2,-2.4657186E-2],"split_indices":[3,0,3,1,0,1,0,0,0],"split_type":[0,0,0,0,0,0,0,0,0],"sum_hessian":[7.312999E0,1.3335507E0,5.9794483E0,4.773592E0,1.2058561E0,3.0583968E0,1.7151954E0,1.2261813E0,1.8322155E0],"tree_param":{"num_deleted":"0","num_feature":"5","num_nodes":"9","size_leaf_vector":"1"}},{"base_weights":[-6.939819E-2,-7.1229264E-2,9.8877355E-2,-1.8715978E-2,6.1182696E-2],"categories":[],"categories_nodes":[],"categories_segments":[],"categories_sizes":[],"default_left":[0,0,0,0,0],"id":89,"left_children":[1,-1,3,-1,-1],"loss_changes":[1.7841467E-1,0E0,7.107188E-2,0E0,0E0],"parents":[2147483647,0,0,2,2],"right_children":[2,-1,4,-1,-1],"split_conditions":[1.53E0,-7.1229264E-2,6.1E1,-1.8715978E-2,6.1182696E-2],"split_indices":[3,0,0,0,0],"split_type":[0,0,0,0,0],"sum_hessian":[4.479533E0,2.0357533E0,2.44378E0,1.1243016E0,1.3194785E0],"tree_param":{"num_deleted":"0","num_feature":"5","num_nodes":"5","size_leaf_vector":"1"}},{"base_weights":[1.0181915E-1,-6.1426006E-2,9.588943E-2,-4.0394545E-2,1.14448685E-2],"categories":[],"categories_nodes":[],"categories_segments":[],"categories_sizes":[],"default_left":[0,0,0,0,0],"id":90,"left_children":[1,3,-1,-1,-1],"loss_changes":[2.3624538E-1,3.6641784E-2,0E0,0E0,0E0],"parents":[2147483647,0,0,1,1],"right_children":[2,4,-1,-1,-1],"split_conditions":[6.056866E1,6E0,9.588943E-2,-4.0394545E-2,1.14448685E-2],"split_indices":[4,1,0,0,0],"split_type":[0,0,0,0,0],"sum_hessian":[5.0919924E0,3.3209813E0,1.771011E0,1.7107583E0,1.6102228E0],"tree_param":{"num_deleted":"0","num_feature":"5","num_nodes":"5","size_leaf_vector":"1"}},{"base_weights":[-4.0273007E-2,-6.695239E-2,2.3047676E-2,7.3560536E-2,-2.1032944E-2,5.2250188E-2,-2.383674E-2],"categories":[],"categories_nodes":[],"categories_segments":[],"categories_sizes":[],"default_left":[0,0,0,0,0,0,0],"id":91,"left_children":[1,-1,3,5,-1,-1,-1],"loss_changes":[9.790149E-2,0E0,3.741858E-2,8.978581E-2,0E0,0E0,0E0],"parents":[2147483647,0,0,2,2,3,3],"right_children":[2,-1,4,6,-1,-1,-1],"split_conditions":[1.16E0,-6.695239E-2,2.75E1,6E0,-2.1032944E-2,5.2250188E-2,-2.383674E-2],"split_indices":[3,0,2,1,0,0,0],"split_type":[0,0,0,0,0,0,0],"sum_hessian":[7.0091686E0,1.153313E0,5.8558555E0,3.9334054E0,1.92245E0,2.2897139E0,1.6436915E0],"tree_param":{"num_deleted":"0","num_feature":"5","num_nodes":"7","size_leaf_vector":"1"}},{"base_weights":[-5.7142258E-2,6.2769346E-2,-7.8957506E-2,-1.4048792E-2,4.0374883E-2],"categories":[],"categories_nodes":[],"categories_segments":[],"categories_sizes":[],"default_left":[0,0,0,0,0],"id":92,"left_children":[1,3,-1,-1,-1],"loss_changes":[1.4531694E-1,3.8592644E-2,0E0,0E0,0E0],"parents":[2147483647,0,0,1,1],"right_children":[2,4,-1,-1,-1],"split_conditions":[4.650827E1,5.8E0,-7.8957506E-2,-1.4048792E-2,4.0374883E-2],"split_indices":[4,1,0,0,0],"split_type":[0,0,0,0,0],"sum_hessian":[4.212808E0,3.1026E0,1.1102079E0,1.3659118E0,1.7366883E0],"tree_param":{"num_deleted":"0","num_feature":"5","num_nodes":"5","size_leaf_vector":"1"}},{"base_weights":[8.869853E-2,-5.6756135E-2,9.021561E-2,-3.5177663E-2,8.162343E-3],"categories":[],"categories_nodes":[],"categories_segments":[],"categories_sizes":[],"default_left":[0,0,0,0,0],"id":93,"left_children":[1,3,-1,-1,-1],"loss_changes":[1.9514182E-1,2.4861703E-2,0E0,0E0,0E0],"parents":[2147483647,0,0,1,1],"right_children":[2,4,-1,-1,-1],"split_conditions":[6.056866E1,6E0,9.021561E-2,-3.5177663E-2,8.162343E-3],"split_indices":[4,1,0,0,0],"split_type":[0,0,0,0,0],"sum_hessian":[4.774257E0,3.2659721E0,1.508285E0,1.667713E0,1.5982591E0],"tree_param":{"num_deleted":"0","num_feature":"5","num_nodes":"5","size_leaf_vector":"1"}},{"base_weights":[-3.49446E-2,-6.099685E-2,2.056972E-2,-3.860567E-2,3.3042468E-2,9.121843E-2,-6.3011594E-2,7.5198315E-2,-3.0719155E-2],"categories":[],"categories_nodes":[],"categories_segments":[],"categories_sizes":[],"default_left":[0,0,0,0,0,0,0,0,0],"id":94,"left_children":[1,-1,3,5,-1,7,-1,-1,-1],"loss_changes":[7.685587E-2,0E0,4.005721E-2,1.2617175E-1,0E0,1.31657E-1,0E0,0E0,0E0],"parents":[2147483647,0,0,2,2,3,3,5,5],"right_children":[2,-1,4,6,-1,8,-1,-1,-1],"split_conditions":[1.16E0,-6.099685E-2,6.2E0,1.89E1,3.3042468E-2,5.8E0,-6.3011594E-2,7.5198315E-2,-3.0719155E-2],"split_indices":[3,0,1,2,0,1,0,0,0],"split_type":[0,0,0,0,0,0,0,0,0],"sum_hessian":[6.774736E0,1.0196246E0,5.755111E0,3.8082192E0,1.9468919E0,2.4333665E0,1.3748528E0,1.1728725E0,1.2604939E0],"tree_param":{"num_deleted":"0","num_feature":"5","num_nodes":"9","size_leaf_vector":"1"}},{"base_weights":[-4.8017155E-2,-7.0084974E-2,6.539887E-2,-1.4771622E-2,4.910279E-2],"categories":[],"categories_nodes":[],"categories_segments":[],"categories_sizes":[],"default_left":[0,0,0,0,0],"id":95,"left_children":[1,-1,3,-1,-1],"loss_changes":[1.20647244E-1,0E0,5.186589E-2,0E0,0E0],"parents":[2147483647,0,0,2,2],"right_children":[2,-1,4,-1,-1],"split_conditions":[1.49E0,-7.0084974E-2,6.5E1,-1.4771622E-2,4.910279E-2],"split_indices":[3,0,0,0,0],"split_type":[0,0,0,0,0],"sum_hessian":[4.0056643E0,1.1173537E0,2.888311E0,1.5635047E0,1.3248061E0],"tree_param":{"num_deleted":"0","num_feature":"5","num_nodes":"5","size_leaf_vector":"1"}},{"base_weights":[7.545859E-2,-5.629685E-2,8.487169E-2,6.437369E-3,-3.7857365E-2],"categories":[],"categories_nodes":[],"categories_segments":[],"categories_sizes":[],"default_left":[0,0,0,0,0],"id":96,"left_children":[1,3,-1,-1,-1],"loss_changes":[1.6627622E-1,2.5523275E-2,0E0,0E0,0E0],"parents":[2147483647,0,0,1,1],"right_children":[2,4,-1,-1,-1],"split_conditions":[6.056866E1,6.9E1,8.487169E-2,6.437369E-3,-3.7857365E-2],"split_indices":[4,0,0,0,0],"split_type":[0,0,0,0,0],"sum_hessian":[4.5008054E0,3.198175E0,1.3026305E0,1.8420081E0,1.3561668E0],"tree_param":{"num_deleted":"0","num_feature":"5","num_nodes":"5","size_leaf_vector":"1"}},{"base_weights":[-3.140033E-2,4.8629366E-2,-1.0639831E-1,1.2743576E-1,-2.8531246E-2,-1.8324728E-1,1.7043395E-2,1.2814985E-2,4.5988806E-2,-7.0474304E-2,-1.3029452E-2],"categories":[],"categories_nodes":[],"categories_segments":[],"categories_sizes":[],"default_left":[0,0,0,0,0,0,0,0,0,0,0],"id":97,"left_children":[1,3,5,7,-1,9,-1,-1,-1,-1,-1],"loss_changes":[5.017131E-2,6.097503E-2,6.28861E-2,4.911944E-4,0E0,1.2055002E-2,0E0,0E0,0E0,0E0,0E0],"parents":[2147483647,0,0,1,1,2,2,3,3,5,5],"right_children":[2,4,6,8,-1,10,-1,-1,-1,-1,-1],"split_conditions":[5.9584713E1,1.63E0,7.1E1,1.28E1,-2.8531246E-2,1.28E0,1.7043395E-2,1.2814985E-2,4.5988806E-2,-7.0474304E-2,-1.3029452E-2],"split_indices":[4,3,0,2,0,3,0,0,0,0,0],"split_type":[0,0,0,0,0,0,0,0,0,0,0],"sum_hessian":[6.4969563E0,3.3131325E0,3.183824E0,2.213113E0,1.1000196E0,2.0811296E0,1.1026944E0,1.1377215E0,1.0753915E0,1.0229437E0,1.0581858E0],"tree_param":{"num_deleted":"0","num_feature":"5","num_nodes":"11","size_leaf_vector":"1"}},{"base_weights":[-3.7598286E-2,-1.4219145E-1,4.2935647E-2,-8.294092E-2,8.795062E-3],"categories":[],"categories_nodes":[],"categories_segments":[],"categories_sizes":[],"default_left":[0,0,0,0,0],"id":98,"left_children":[1,3,-1,-1,-1],"loss_changes":[1.1058924E-1,8.929849E-2,0E0,0E0,0E0],"parents":[2147483647,0,0,1,1],"right_children":[2,4,-1,-1,-1],"split_conditions":[1.63E0,6.6E1,4.2935647E-2,-8.294092E-2,8.795062E-3],"split_indices":[3,0,0,0,0],"split_type":[0,0,0,0,0],"sum_hessian":[3.7741003E0,2.5255668E0,1.2485337E0,1.073279E0,1.4522877E0],"tree_param":{"num_deleted":"0","num_feature":"5","num_nodes":"5","size_leaf_vector":"1"}},{"base_weights":[6.5047316E-2,-5.2672494E-2,7.936175E-2,-3.4071863E-2,9.234843E-3],"categories":[],"categories_nodes":[],"categories_segments":[],"categories_sizes":[],"default_left":[0,0,0,0,0],"id":99,"left_children":[1,3,-1,-1,-1],"loss_changes":[1.3778098E-1,2.4590861E-2,0E0,0E0,0E0],"parents":[2147483647,0,0,1,1],"right_children":[2,4,-1,-1,-1],"split_conditions":[6.056866E1,6E0,7.936175E-2,-3.4071863E-2,9.234843E-3],"split_indices":[4,1,0,0,0],"split_type":[0,0,0,0,0],"sum_hessian":[4.273645E0,3.150504E0,1.1231406E0,1.6127437E0,1.5377605E0],"tree_param":{"num_deleted":"0","num_feature":"5","num_nodes":"5","size_leaf_vector":"1"}},{"base_weights":[-2.7977528E-2,4.6610396E-2,-9.838865E-2,1.1381001E-1,-2.3484772E-2,-4.986341E-2,1.3448337E-2,1.1082891E-2,4.1373227E-2],"categories":[],"categories_nodes":[],"categories_segments":[],"categories_sizes":[],"default_left":[0,0,0,0,0,0,0,0,0],"id":100,"left_children":[1,3,5,7,-1,-1,-1,-1,-1],"loss_changes":[4.285511E-2,4.430174E-2,4.6982426E-2,7.394217E-4,0E0,0E0,0E0,0E0,0E0],"parents":[2147483647,0,0,1,1,2,2,3,3],"right_children":[2,4,6,8,-1,-1,-1,-1,-1],"split_conditions":[5.9584713E1,1.63E0,7.1E1,1.28E1,-2.3484772E-2,-4.986341E-2,1.3448337E-2,1.1082891E-2,4.1373227E-2],"split_indices":[4,3,0,2,0,0,0,0,0],"split_type":[0,0,0,0,0,0,0,0,0],"sum_hessian":[6.2868414E0,3.2170162E0,3.0698252E0,2.1493056E0,1.0677106E0,1.9742998E0,1.0955254E0,1.1176199E0,1.0316858E0],"tree_param":{"num_deleted":"0","num_feature":"5","num_nodes":"9","size_leaf_vector":"1"}},{"base_weights":[-3.0251086E-2,-5.0295908E-2,8.647859E-2,-1.8516093E-2,5.5941064E-2],"categories":[],"categories_nodes":[],"categories_segments":[],"categories_sizes":[],"default_left":[0,0,0,0,0],"id":101,"left_children":[1,-1,3,-1,-1],"loss_changes":[8.830373E-2,0E0,5.8153573E-2,0E0,0E0],"parents":[2147483647,0,0,2,2],"right_children":[2,-1,4,-1,-1],"split_conditions":[1.53E0,-5.0295908E-2,6.1E1,-1.8516093E-2,5.5941064E-2],"split_indices":[3,0,0,0,0],"split_type":[0,0,0,0,0],"sum_hessian":[3.60165E0,1.4539557E0,2.1476943E0,1.0194699E0,1.1282246E0],"tree_param":{"num_deleted":"0","num_feature":"5","num_nodes":"5","size_leaf_vector":"1"}},{"base_weights":[5.399207E-2,7.063392E-2,-6.298092E-2,7.3933364E-3,-4.7365047E-2],"categories":[],"categories_nodes":[],"categories_segments":[],"categories_sizes":[],"default_left":[0,0,0,0,0],"id":102,"left_children":[1,-1,3,-1,-1],"loss_changes":[1.2312442E-1,0E0,3.625036E-2,0E0,0E0],"parents":[2147483647,0,0,2,2],"right_children":[2,-1,4,-1,-1],"split_conditions":[1.16E0,7.063392E-2,6.9E1,7.3933364E-3,-4.7365047E-2],"split_indices":[3,0,0,0,0],"split_type":[0,0,0,0,0],"sum_hessian":[4.1022134E0,1.2109307E0,2.8912828E0,1.8881946E0,1.0030884E0],"tree_param":{"num_deleted":"0","num_feature":"5","num_nodes":"5","size_leaf_vector":"1"}},{"base_weights":[-2.4695674E-2,3.809431E-2,-1.2058045E-1,-5.047171E-2,4.839484E-2,-6.000188E-2,6.200908E-3,-4.1279387E-2,1.2248085E-2],"categories":[],"categories_nodes":[],"categories_segments":[],"categories_sizes":[],"default_left":[0,0,0,0,0,0,0,0,0],"id":103,"left_children":[1,3,5,7,-1,-1,-1,-1,-1],"loss_changes":[4.7528423E-2,6.3464366E-2,3.8487006E-2,3.5137564E-2,0E0,0E0,0E0,0E0,0E0],"parents":[2147483647,0,0,1,1,2,2,3,3],"right_children":[2,4,6,8,-1,-1,-1,-1,-1],"split_conditions":[2.42E1,6.9E1,5.9E0,1.36E0,4.839484E-2,-6.000188E-2,6.200908E-3,-4.1279387E-2,1.2248085E-2],"split_indices":[2,0,1,3,0,0,0,0,0],"split_type":[0,0,0,0,0,0,0,0,0],"sum_hessian":[6.1313434E0,4.069286E0,2.0620575E0,2.7110856E0,1.3582006E0,1.0536253E0,1.008432E0,1.1277528E0,1.5833327E0],"tree_param":{"num_deleted":"0","num_feature":"5","num_nodes":"9","size_leaf_vector":"1"}},{"base_weights":[-2.2178581E-2,-4.3831784E-2,8.017651E-2,-1.771957E-2,5.2670475E-2],"categories":[],"categories_nodes":[],"categories_segments":[],"categories_sizes":[],"default_left":[0,0,0,0,0],"id":104,"left_children":[1,-1,3,-1,-1],"loss_changes":[6.84791E-2,0E0,5.1499844E-2,0E0,0E0],"parents":[2147483647,0,0,2,2],"right_children":[2,-1,4,-1,-1],"split_conditions":[1.53E0,-4.3831784E-2,6.1E1,-1.771957E-2,5.2670475E-2],"split_indices":[3,0,0,0,0],"split_type":[0,0,0,0,0],"sum_hessian":[3.4750998E0,1.3785571E0,2.0965426E0,1.007185E0,1.0893576E0],"tree_param":{"num_deleted":"0","num_feature":"5","num_nodes":"5","size_leaf_vector":"1"}},{"base_weights":[4.663516E-2,6.6265576E-2,-6.117048E-2,4.788275E-3,-3.0791158E-2],"categories":[],"categories_nodes":[],"categories_segments":[],"categories_sizes":[],"default_left":[0,0,0,0,0],"id":105,"left_children":[1,-1,3,-1,-1],"loss_changes":[1.0634298E-1,0E0,1.3907397E-2,0E0,0E0],"parents":[2147483647,0,0,2,2],"right_children":[2,-1,4,-1,-1],"split_conditions":[1.16E0,6.6265576E-2,5.5E1,4.788275E-3,-3.0791158E-2],"split_indices":[3,0,0,0,0],"split_type":[0,0,0,0,0],"sum_hessian":[3.9417422E0,1.1056768E0,2.8360653E0,1.2066642E0,1.6294011E0],